Function,Feature_0,Feature_1,Feature_2,Feature_3,Feature_4,Feature_5,Feature_6,Feature_7,Feature_8,Feature_9,Feature_10,Feature_11,Feature_12,Feature_13,Feature_14,Feature_15,Feature_16,Feature_17,Feature_18,Feature_19,Feature_20,Feature_21,Feature_22,Feature_23,Feature_24,Feature_25,Feature_26,Feature_27,Feature_28,Feature_29,Feature_30,Feature_31,Feature_32,Feature_33,Feature_34,Feature_35,Feature_36,Feature_37,Feature_38,Feature_39,Feature_40,Feature_41,Feature_42,Feature_43,Feature_44,Feature_45,Feature_46,Feature_47,Feature_48,Feature_49,Feature_50,Feature_51,Feature_52,Feature_53,Feature_54,Feature_55,Feature_56,Feature_57,Feature_58,Feature_59,Feature_60,Feature_61,Feature_62,Feature_63,Feature_64,Feature_65,Feature_66,Feature_67,Feature_68,Feature_69,Feature_70,Feature_71,Feature_72,Feature_73,Feature_74,Feature_75,Feature_76,Feature_77,Feature_78,Feature_79,Feature_80,Feature_81,Feature_82,Feature_83,Feature_84,Feature_85,Feature_86,Feature_87,Feature_88,Feature_89,Feature_90,Feature_91,Feature_92,Feature_93,Feature_94,Feature_95,Feature_96,Feature_97,Feature_98,Feature_99
void,0.0033197466,0.0013251919,0.0027992297,0.004075027,-0.002623247,-0.0023273737,0.0027786086,-0.00034886008,-0.0040322887,0.0030079877,-0.0035068514,-0.0028588327,0.0039969855,0.004228639,0.0015910225,-0.0015298738,0.0016737661,0.00041523075,0.00071801327,-0.0047414512,-0.0015304695,-0.0031063035,-0.0045391335,0.0041200044,-0.00032627874,0.0032362537,-0.004098257,0.0015197264,0.0039558513,-0.0009364061,-0.00058948627,0.00023965082,0.005116732,-0.0009865345,0.0018642136,0.004891137,0.0031299642,0.002066681,-0.0021883962,0.0036807433,0.0014527758,-0.003314293,0.003976886,0.0017920557,-0.00051815907,-0.0035284546,0.0009788289,0.0041766195,0.0038238657,0.0005917417,-0.0026853916,-0.0026009446,-0.003154128,0.00096806395,0.00072943285,-0.00082294806,0.004557092,0.0021263876,0.0009293243,0.002340133,0.004192988,0.00021762078,-0.00011056251,0.0032326072,-0.004732525,0.0049518878,0.004153115,-0.00068076444,0.0043665566,-0.0015900854,-0.0026375633,0.0013634581,8.6097505e-05,-0.00089090347,0.0023887714,8.557337e-05,0.0031594776,-0.0019094461,-0.0031223574,0.0028896807,-0.0031027691,0.004558356,-0.0015258855,0.00075499044,-0.0047786543,0.00019132416,0.0010470725,0.0036314677,-0.0006666628,0.002447663,-0.0021582898,-0.0018435116,-0.00037587353,0.0019457047,0.0023164125,0.0014645593,0.0017348196,-0.0019166966,0.003249039,-0.0010827559
onDestroy,0.0009548466,0.0032846497,-0.0039692186,-6.599959e-06,-0.0030105342,-0.0008451143,-0.00069334224,-0.004533107,-0.004027669,0.0036175593,0.0020104856,0.0021059401,-0.003029275,-0.0014961982,-0.0034757387,0.001693722,0.0009554128,-0.0029716634,-0.0038639752,-0.0021674866,-0.00045775637,0.0017078061,-0.00091476337,0.003035818,0.00042354906,0.0013541522,0.0025962233,0.0034110325,0.0034427326,-0.004484872,-0.004099608,0.0050248685,0.004500115,-0.0009011575,0.00211075,-0.001691193,-0.0046650134,-0.0005409317,3.6423175e-05,-0.00329677,0.003786347,0.0020670772,0.0021352677,-0.003641312,0.0030046455,-0.0045141703,-0.0015599956,0.002558471,-0.0021599184,-0.00030958917,-0.004145999,0.00403351,-0.0042518554,-0.002217713,-0.00072790834,-0.004263619,0.003280409,0.002220433,-0.0033981246,0.0023734234,-0.002759007,-0.003418278,-0.0029095681,0.003988699,-0.0043934276,-0.004315747,-0.002208192,-0.0036063578,-0.002944888,0.0005058635,0.0011813655,-0.0041003255,-0.0043959133,-0.00029730765,0.00018069844,-0.0010640743,-0.0034915092,-0.0018013278,0.00059182866,-0.0036916293,0.0033646205,0.0025571184,-0.00412695,-0.0036801824,0.0020420456,-0.0035368898,0.00059138326,-0.00022609365,-0.00022087042,-0.0030775126,0.002056105,0.0019556263,0.0026175776,0.0021956323,-0.0010679783,-0.00359246,0.0046493276,-0.00049206836,-0.0010081751,0.0018946134
cleanup,-0.0014588211,0.004659703,-0.00044910717,-0.004424599,-0.0018027361,-0.00025681528,-0.0047419393,-0.0047053453,0.0024551149,-0.0029227254,-0.0007125598,0.0010898503,-0.0012429595,-0.0010259807,0.00037264053,-0.002547637,0.0011880109,-0.0024260336,0.0037205191,-0.0051530385,0.0036828066,0.003024732,0.0035452219,0.0028568166,0.00017792248,0.0017939776,-0.0033843198,0.0010636481,-0.003324284,0.001134488,0.0033625565,-0.0037988003,-0.004801225,0.0055089085,-6.240006e-05,0.0018840939,0.0030094194,-0.004508742,-0.00022583661,-0.00047455268,0.0032229926,0.0019937833,0.0044019567,0.0026952429,-0.0032620654,-0.0007084864,0.0043306933,0.0031841446,0.0017978998,0.0016832737,0.001471247,0.004679986,0.0034049966,0.0028570618,-0.0021427395,0.0013472501,0.0021040076,0.0019668282,0.00031400184,0.0033627,-0.0037678117,0.0015540259,0.0007829457,0.004106094,-0.00085534836,0.0025107826,-0.0016333306,-0.0029439519,0.003225179,0.0021886143,0.0018236923,-0.0013167976,0.0007115672,0.002945329,0.0042767767,0.0033151403,0.004430325,-0.0049064024,-0.00261975,0.0032694696,-0.0050646234,-0.003506043,-0.001649314,-0.00070304447,0.0030372867,-0.002919745,-0.002070998,0.00037906886,-0.0029371206,0.0038264354,0.0018389107,0.0012835026,0.00088011834,0.0039901114,0.003062055,0.0039689355,-0.0038865574,-0.00089952623,-0.0025615422,-0.0038071468
dispatchTimeChanged,0.004713592,0.002552587,0.002554603,0.0045333044,0.0032426838,-0.004837432,0.00067158404,-0.00061546377,-0.003538063,-0.0044079036,-0.0006758745,0.002129157,0.0013424439,-0.0031784032,-0.002541625,-0.00314293,0.0010038983,0.0025622577,-0.0011528236,0.0021370891,0.0026003213,0.0001698209,0.0050313673,0.0017497479,0.0035667415,-0.0029345264,0.0008993722,-0.0029686952,-0.0049271258,-5.7127196e-05,0.0046287854,0.0021085895,-0.0014236544,-0.004072616,0.0051402454,-0.0044888556,-0.0030515022,0.00084841356,0.0030753843,-0.0044077365,-0.0028548944,0.00075495464,0.0022214772,0.00028764002,-0.0011391481,-0.003943842,0.0040445775,-6.8306064e-05,0.0019408414,0.0014871837,0.0024638372,-0.0045707906,-0.0009343232,-0.0038802014,-0.0042293184,-0.0027338883,-0.0018889087,-0.0021264988,-0.00013562838,0.0008528626,0.0022721253,-0.0036682116,-0.00252728,0.0024194606,0.00412759,-0.00031260465,0.0024961669,0.003786075,-0.0045175627,-0.0041233404,0.0020574662,0.0012535261,0.0024391627,0.0012071026,0.00361404,-0.0018239453,-0.0033944685,-0.00071203103,0.0010804142,0.0037595818,-0.0037440872,0.004632606,-0.002923371,-0.0025429653,-0.0015037329,0.0020450554,-0.0044962675,0.0025752485,0.00051850535,0.00019720581,0.003134855,0.00097070524,0.0016012238,0.00035262332,-0.0016448068,0.002753606,-0.0048583066,-0.0008672223,0.001999412,0.003944439
setup,0.001705466,0.0020018306,-0.0010198447,-0.0011050027,-0.0048087034,-0.0031566692,-0.0024269598,0.004378353,0.0039871465,-0.0024042265,0.0033244872,-0.0010020417,0.0020768584,0.004156028,-0.0024694249,0.0013658908,-0.00055761856,-0.0014809388,-0.0022094864,0.0035774244,0.0012143998,-0.0014877258,0.004765338,-0.0042905197,0.001741164,-0.00017196765,-0.0017989625,0.0012733947,-0.0046824575,0.002117171,0.0019436309,-0.004683464,0.0025417372,-0.0025707951,-0.0011192764,-0.0011677282,0.00246459,-0.005141749,0.00049861864,0.0044295336,-0.0015516593,0.002795016,0.0031023107,0.0036370168,0.0013631993,-0.0030972038,0.00046510037,0.0031254604,0.0036712333,0.0014319067,0.002486734,0.0036652426,-0.00396497,0.0002853546,0.0026854293,-0.0023278473,-0.004268917,0.00027291037,0.0015888755,-0.004013098,-0.003970036,0.00060108805,-0.00039816982,0.0047612055,0.003575861,-0.0028069457,0.0011521695,0.0039337333,0.003484222,-0.0036692466,-0.00043039475,0.0014491932,0.004225264,0.0014230714,0.0023468577,0.00027405808,-0.0044820914,-7.3730735e-05,-0.0012221652,0.0028475772,-0.0009736681,0.004298077,0.0002951353,-0.0041501494,-0.0029664743,-0.00027456382,-0.0041403943,0.00244681,0.0023965251,-0.0017278694,-0.0029663346,-0.0013760364,-0.00025183987,-0.004407458,-0.0004246269,-0.002315379,-0.0032927478,-0.0024384798,-0.004119839,-0.0012092895
applyFrozenState,-0.0011294472,-0.0048936,0.0022776097,-0.0017792495,-0.0013219599,0.003642913,-0.0021149789,-0.000109174616,0.0010627424,0.0044389768,0.0008860266,0.0016100486,0.0028661052,0.0005010873,0.0045514335,-0.0018984562,0.00082568906,-0.00209997,-0.004779515,0.0007604735,-0.0017662935,0.004591259,-0.0019884752,0.003097532,-0.0010358453,0.002263726,-0.00069480954,-0.0007816275,0.0035812736,0.0024272283,0.0014565695,0.00438548,0.004795716,-0.0013673226,0.00019316336,0.0033592507,-0.0028809716,0.0010497033,-0.0007707645,-0.00045913123,0.0015833538,-0.0042938273,0.003206194,-0.00048638403,-0.0027681421,-0.0046536126,0.0021316367,-0.0031010085,0.0032104016,0.0031661117,-0.0017067372,-0.0028827896,0.0019726916,-0.0029123724,0.0005900972,-0.0007591989,0.004486207,0.0049487515,-0.005272425,0.0014019634,-0.0036735875,-0.0034398958,0.0023259553,0.0018355241,0.003670603,0.002026966,-0.0006122046,0.0010819994,-0.002390769,-0.0011464028,0.0022786178,-0.0041501937,-0.00091434596,-0.0036464198,-0.0024017186,0.0045463685,-0.0015849979,-0.0034483809,-0.0046870424,0.002656775,0.0036545673,-0.0029041336,-0.002369104,0.0002442304,-0.0006995591,0.0031888124,0.00017972094,-0.0011448024,-0.004625824,-0.0022077132,0.0035670914,-0.0035130437,0.000408072,0.0016883825,-0.0037208025,0.002755489,-0.004621805,-0.002918678,0.004809123,0.002645896
onRestoreInstanceState,0.0041075344,0.003551421,-0.0037918624,-0.0028513619,-0.003907935,-0.0012123795,-0.0019687114,0.0005064352,0.0015765531,-0.0040470078,3.3112954e-07,0.0030111126,-0.0012685312,-0.004184936,0.0023541301,-0.0021564828,0.00046828683,-0.0021544793,0.0033098226,-0.0032293904,0.0003686842,0.0013737975,0.0009004863,0.004332175,-0.0034943193,-0.004276252,0.0030929828,0.0032691255,-0.002593493,-0.0049248002,-0.0045145582,0.0022247874,-0.0031157995,-0.0023021803,-0.0044694045,0.0035828094,0.003580538,-0.0020715764,-0.0026190698,0.0034045195,0.0010003675,-0.001195356,0.0048847017,0.0015657379,-0.0027657102,0.0022600912,-0.0015068053,-0.0039205113,-0.0018395183,0.0046588997,-0.004419572,0.0025560274,0.0019966564,0.003741304,0.0008079013,0.0031052302,-0.0043378673,0.0030303071,0.00028189653,0.002759318,0.00029714333,-0.0016144001,0.0046132305,-0.00419645,-0.0025308118,0.0028736475,-0.00406442,-0.0032096065,-0.0010724945,0.004436728,0.004457467,-0.004201305,-0.0028084083,0.0035181672,0.0008682961,0.0044055535,0.0017609218,0.004238326,-0.003947581,-0.0029269808,0.0042075487,0.0012020937,-0.0015329495,0.003575554,0.0024663322,0.00283402,-0.0021035003,-0.00067017524,-0.001095352,0.0036504464,0.0005366698,0.0025524078,0.0027296788,-0.003167962,-0.00096369284,-0.0010245371,-0.0033841543,0.0015929868,0.0018292754,-0.0008089657
setMenu,0.0046751574,-0.0031675394,0.00013154453,-0.004111948,-3.288255e-05,-0.0050745993,0.0034538456,0.00029951826,0.0032340449,-0.004576448,-0.0030388606,-0.0009887165,-0.0005583454,0.0023613914,0.004845539,-0.0022892798,-0.004826565,0.0024897433,-0.0037849538,-0.004114198,-0.004753338,0.001869587,-0.0006883961,0.004466093,0.004002554,-0.0032888218,-0.000612404,0.0022789815,-0.0022913846,0.0034029756,-0.0046834582,0.0014525013,-0.0047974647,0.001958928,0.00039571745,0.0028669669,0.0037808076,-0.0022366825,0.0016021157,0.0040650074,-0.002590661,-0.0027085037,-0.0016552211,0.0018435512,-0.0047976165,-0.004527363,0.0042305053,-0.0025115623,-0.0047843717,0.004503886,0.0017755376,-0.0033100646,-0.0023339305,-0.003672801,-0.0049305605,0.0032650435,-0.0004014616,0.001092693,-0.0029690722,0.002622391,-0.0010212802,-0.003868783,0.0040104943,-0.0017337825,-0.0038328352,-0.004291197,-0.0013512777,-0.0016058516,0.0003384533,0.00019527538,0.0012569585,-0.0028518597,-0.0022543287,-0.0035745855,0.0051344126,0.00020707383,-0.0001479632,-0.0015464243,0.0025054854,-0.0032101397,0.0005248034,0.0024362183,-0.0016983044,-0.0038492759,0.0020921312,0.0035170694,-0.0023239828,-0.004063167,0.0024983746,-0.004645277,-0.0027664218,-0.0010863467,0.00088704133,0.001999221,0.0011521375,0.0044561126,-0.0035085827,-0.0028064887,0.0009050991,0.0036751116
setStyle,0.0014255032,0.0041965684,0.00090655754,0.0006506231,0.004780437,0.0029319911,-0.0036871277,-0.0006584934,-0.0020613847,0.00051735225,0.0021577044,-0.0010796747,-0.0017447823,-0.0025882714,-0.0039099683,0.004028823,0.003749149,0.003983739,0.004143079,0.0022072312,0.0039546546,0.001600347,0.002550885,0.0041913907,0.00021517233,0.003072891,0.0018071666,2.5649244e-06,-0.0029417335,-0.0035543076,-0.00028479926,0.003175206,0.004256153,-0.0024258327,0.0043349657,0.0010840186,0.0031650984,0.0044112303,-0.004810477,-0.0054052975,0.0037936524,-0.0012249302,0.0029534004,0.000121878016,-0.0010719481,-0.0028767972,0.0013479143,-0.0031790612,-0.0009478821,-0.0033363854,-0.003850646,-0.003954592,-0.003783258,0.0029766222,0.0036064272,-0.0026023004,-0.0040574903,0.00031776747,-0.00039139332,0.0003433404,0.0012505929,0.0039475113,-0.0005473366,-0.00471224,0.0044745253,-0.0007386294,0.00054478773,0.0047040717,-0.003373314,-0.004075056,0.0042666825,-0.0022107987,0.0011342517,0.00081618025,-0.0046285163,0.004954485,0.0049149008,0.0028297354,-0.0048837694,-0.001274991,0.004482086,-0.0033746024,0.0039504133,-0.0015191659,-0.0023615644,0.0034531667,-0.003201045,0.0039473874,-0.00017318093,0.0024002376,0.004976137,-0.00420444,0.0014398574,-0.0023254703,0.0025192082,0.0039960817,-5.0217106e-05,-0.0020867307,-0.00045871013,-0.0044306675
invalidateCache,-0.0015920427,0.0019422504,0.003027566,-0.003556761,-0.0023662553,-0.0033236595,-0.00095299276,-0.0020788813,0.0039233183,0.0026120513,-0.0010533466,0.004523927,-0.002433143,-0.004737863,0.0033765212,0.000914312,0.0026014019,0.0019303531,0.0017369945,-0.00090804306,0.0018916652,0.003803418,0.00012256141,0.0007481773,0.002880424,-0.00036665105,-0.0051998612,-0.0029054978,-0.0043925536,-0.0016842957,0.002323006,0.0023907297,-0.0040908665,-0.0045489687,0.0032420487,-0.001513043,1.2189702e-05,0.000160522,-0.003361737,-0.0021804706,-0.0046468833,-0.00091970473,0.0031578036,0.0029309767,0.0053256913,-0.0021485516,0.004313649,-0.0019547797,-0.0035342681,-0.0045529,-0.0042279735,0.00476455,-0.0019578456,0.00017846902,-0.0009768902,-3.955373e-05,-0.0028105269,-0.00079992966,-0.0032594518,-0.0029931837,-0.0023760265,0.0017712195,0.004520008,0.001831734,0.0012643787,0.0014004903,0.0038966117,0.004602512,0.0038063207,0.0037363207,-0.002666725,0.0017897957,0.0022906442,0.00249357,-0.0042129434,0.0030843846,-0.0007203968,-0.0049435548,0.0008093112,-0.0001315792,-0.0032931115,-0.00028154234,-0.0041419026,-0.001647615,-0.001840485,0.0024364684,0.0033048822,-0.0003498131,-0.0008548448,0.0024148405,0.0049837697,-0.003272328,-0.0037787948,0.0021313794,-0.00015783883,-0.00442214,-0.0022593758,0.0006276511,0.0042392435,0.0010790267
mutate,-0.004529069,-0.00024074607,-0.0005992054,-0.0002369851,0.0025640603,0.0010975045,0.0019511264,0.002082676,-0.0035381913,-0.0026746977,0.0022497815,-0.0017618854,0.00018823238,-0.0029367418,-0.003739617,-0.0040831077,-0.002344047,0.0037447703,0.0045275167,-0.0024339305,-0.0035592846,0.004426751,-0.0013518622,-0.004752275,0.0030947826,-0.0018428328,-0.0032753048,0.0046229353,-0.0031003114,-0.0010575191,-0.0042677196,-0.0009254826,-0.0044093616,0.003692796,-0.0018871456,0.004156664,-0.0019105668,2.0097665e-05,0.0011440559,0.004121016,-0.00065536617,-0.00021688342,-0.0038016909,-0.005132866,-0.0021865107,-0.0037962222,-0.0020125047,-0.0014273039,0.0038570424,-0.0039136386,0.0014476378,-0.0006705557,0.0014116574,0.004817404,-0.0047859545,0.0024061913,0.004041392,0.003062805,0.0034105259,0.0022882537,0.0026719237,-0.0032009443,0.0016098148,0.00072749145,-0.0050987164,-0.00080204324,0.0027079093,-0.0034143361,0.0019667833,0.0029101456,0.00040318334,0.003355519,0.0010194762,-0.0016915747,0.0042862864,0.0033413009,-0.0025238472,0.0021034756,-0.0046525854,0.002969824,0.0001071059,-3.2776727e-05,-0.003065412,0.004422838,0.003082003,0.0031297626,0.0041919034,-0.004317855,-0.001581387,-0.0042855185,0.004270254,-0.0039656167,0.0026872838,0.005125027,0.0020734281,0.004469008,-0.0026721626,0.0016027638,-0.0013210351,-0.002087677
animate,-0.0033773158,-0.0010098976,-0.0016642726,-0.0013308033,0.0030997351,0.0010793867,0.001241686,-0.00024701667,-0.0032736012,-0.0028337776,0.0039657205,-4.579374e-05,-0.00089266617,-0.0008001879,-0.0036309531,-0.0045035323,0.0015154949,-0.0026141878,0.001231849,-0.0038469855,0.0016549162,-0.0010759927,-0.0008392499,-0.0043934816,-0.0042247795,0.0042461776,-0.003943941,-0.0008376908,0.004588214,-0.0027459976,-0.002192596,0.0011157693,-0.00036148418,0.004529074,0.00086826377,-0.0024752538,0.0030244652,-0.00522673,-0.0011287096,-0.00055320025,-0.0034033025,-0.0027270408,-0.0001784371,-0.00072839804,0.0027120411,-0.00080055854,-0.0028061063,-0.0007228544,-0.0005806621,-0.0016979957,-0.00052595214,-0.0026682124,0.00458159,0.003053547,-0.0045694876,-0.0025816027,0.004012582,0.00091524783,-0.0003995381,0.004170258,-0.0019456958,0.0050675166,-0.0029047944,-0.0031373717,0.0038606764,-0.0010141372,0.0018651048,0.0047244034,0.003812196,-0.003164799,-0.0026769987,0.0049686534,0.00039558337,-0.0017911707,0.0019422636,0.0010071887,0.0037951416,-0.0010633263,-0.0049791466,-0.0043983203,0.0033374652,0.0005761106,0.002602219,0.003175928,-0.00069608714,-0.0008488117,0.00020802554,0.0006524855,0.0022742846,0.0008465917,-0.0020937836,0.003022967,0.0017761863,-0.004478365,-0.00019959666,0.0012038698,-0.0027520347,0.004132059,0.0010281,-0.0048944848
clearMutated,-0.0033063814,0.0018612056,-0.00095603435,-0.002697998,0.004136287,-0.0041023097,0.00038237424,0.0030908105,0.000132285,0.0012244701,0.0016324953,0.0017408855,0.0019934403,0.004522187,-0.0017599687,-0.0031335177,-0.0036584088,-0.002834252,-0.004841067,0.004539877,0.00095905166,-0.0028307384,0.00466417,0.0032849298,-0.0036775377,-0.0029885303,-0.002606392,0.0020785502,-0.003274251,0.0036539452,0.0041544004,0.000129746,-0.0033814819,-0.00060896965,0.0031852196,-0.00084789813,0.0015170843,-0.005256776,-0.0012258375,-0.0023626077,-0.0034138733,0.0031814706,-0.0023620524,0.004319466,-0.0011515511,0.0029696608,-0.00040128484,0.004380282,-0.0031970174,0.001581084,-0.0022509298,-0.003403474,0.0027539034,-0.0013364315,0.0012619387,7.261611e-05,-0.0022567897,0.0035029976,-0.004757196,0.0013017006,-0.0033387851,-0.0035394335,-0.0018427179,-0.00045079674,0.0028868334,-0.00033236563,-0.002967488,0.0013957652,0.00042611497,-0.002346135,-0.0045538032,-0.003840396,-0.001608797,-0.003929049,0.0019778,-0.0018242106,0.0029941422,0.0045881663,0.002243126,-0.0022793273,0.0048457854,0.00033499947,0.004720435,0.002189544,-3.524928e-05,-0.0026542547,-0.0047830935,0.004370526,-0.0020169253,0.0020753162,0.00034041147,-0.0023680348,-0.0049763266,-0.0013515794,0.005044453,-0.0022974338,0.000633859,-0.0050544264,-0.0037111412,-0.0009982868
setCurrentIndex,-0.002685144,0.0034865744,-0.0008567523,0.003900351,-0.0037426322,-0.0042123254,-0.0041160984,0.002860194,0.0037809068,-0.0046718377,0.00226057,-0.004961635,0.000632459,-0.004005999,0.0035425583,0.0039433297,-0.0038082746,0.0022056424,-0.0047672596,-0.00068168074,-0.0018524226,-0.0021567834,-0.0026805738,0.00038020473,-0.00309376,-0.002800008,-0.0045511434,-0.0027632993,-0.0025950714,0.0015024,0.0008883897,-0.00396005,-0.0040463377,-0.0025503929,-0.0023856882,-0.0012717627,0.0028318705,-0.003969829,0.002249547,0.0044795102,-0.0011630396,-0.0033791685,0.0023468991,0.0020563581,-0.0026074473,0.0009381851,0.0030826912,0.00188898,0.0046195555,-0.0029534318,0.000754961,0.003961377,-0.0030553725,-0.0033660717,-0.0013546366,-0.0026973225,-0.0016397762,0.00036638166,-0.00227922,-0.0019805802,-0.0037730439,0.0013729981,0.0034559264,0.0028348248,0.0043500187,-0.004138689,-0.0038175606,-0.0022642985,0.00076361495,-0.0010941146,-0.0005644906,-0.0019184207,-0.0022845408,0.002005019,0.0030184258,0.0009138987,-0.003600442,-0.0038018432,0.0007347991,-0.0017494843,-0.0050494703,-0.0040079993,-0.003958393,0.0039324863,0.003059886,0.0020542955,-0.004770923,0.003725783,0.0015215427,0.00029039817,-0.0006340411,-0.0034919062,-0.0011409838,-0.002327258,-0.002330377,-0.00175102,0.0016744101,-0.0017982118,0.0050264993,0.0015683427
onAnimationsEnded,0.0025698908,-0.0024847118,-0.0011076231,-0.0038714414,0.0011300194,0.004633062,-0.004538651,0.0045298557,-0.00048340764,-8.15423e-05,-0.003846512,3.437737e-05,-0.0046119713,0.0022293772,-0.0020436903,-0.003967705,-0.00392813,-0.0017284399,-0.0031181814,-0.00077260146,0.0003062759,-0.0029657637,-0.0031180547,-0.0021553978,-0.0026112066,0.0016754244,0.0009231014,0.0010579663,0.00096752646,0.0029523831,0.002598287,-0.00378981,0.0018534383,0.0026257904,-0.004037873,-0.004447357,-0.0034350082,-0.00053129415,0.0021352388,2.4422757e-06,-0.004148101,-7.64342e-05,0.0042914175,0.003466905,-0.0010178671,-0.0044642393,0.0018897946,-0.0010290098,0.0019920703,0.0033358256,0.0007791721,-0.0036801258,-0.000515411,0.004461319,0.004674322,0.003321216,0.0039057666,0.004554873,0.0010663733,0.00535924,0.0012878075,0.0003291189,-0.00075501495,0.0034690588,-0.00041452397,0.0017309863,0.00071104866,-0.0036469947,-0.00069003605,-0.001815803,-0.0026572424,-0.00054653466,-0.002767382,0.004196122,0.00036272072,-0.00027702632,-0.0028145749,0.00037490565,0.0024813656,0.0044486867,-0.0036797796,0.0036709926,-0.0011533594,0.0048736027,0.0044272137,0.0028995997,0.00014335541,-0.0002730759,0.0027341342,-0.0021864949,0.001919478,-0.0030927323,0.0036167158,0.004682365,0.0025560432,0.002507193,-0.0018098827,0.004297699,0.002581244,0.0041364604
findExpandedIndex,0.001695356,0.0042830976,0.0040838183,-0.002751864,0.0035783136,0.003329621,-0.00063155213,-0.0018370873,0.0005968194,-0.0037915825,-0.0012606871,0.00045308552,0.0011873038,-0.002382265,-0.0015875668,0.0018562593,0.0048746443,0.00079996494,-0.0046976106,-0.0044971434,0.003089261,-0.00403742,0.0003656366,0.0018741089,0.00060165935,-0.001332215,0.00061060913,-0.0024064675,-0.0040959623,-0.0026002624,-0.0022982906,0.0010286768,-0.0016565052,0.0053658984,0.0038039119,0.0002337019,0.0034475187,-0.0018733006,-0.0037553185,-0.001859122,0.004249045,-0.0042233765,0.002644181,-0.0010111183,0.0018561066,0.002399926,-0.0021329203,0.0011264741,0.0049334276,0.0019635467,-0.004710768,-0.00088718196,-3.0608255e-05,0.0015830855,-0.0022596724,-0.002410885,-0.005123886,-0.0032688389,-0.0030151908,0.0011825158,-0.0039413143,-0.0015147052,-0.00454932,7.1055896e-05,-0.003835047,0.00022701254,-0.0007897833,0.0044153426,-0.00079756405,0.000740587,-0.004626447,-0.0013347166,-0.0023600867,0.00289686,-0.0015567001,-0.004213967,-0.002016559,-0.00091779936,-0.0052377605,0.004021716,-0.0009056707,-0.004537908,-0.0015823086,-0.001010891,0.0032951194,0.0029547387,-0.0023939607,0.0035891142,-0.0001091971,0.0026459123,-0.00062496285,0.0050976337,0.0045387764,-0.0023300687,-0.0046993983,0.0033740723,0.0010716806,0.0024172275,-0.0018159491,0.0002777584
applySupportBackgroundTint,0.0005536846,0.0031359817,-0.0044596433,-0.0026812216,-0.0005939209,0.0017618795,0.0021294723,-0.002063235,0.0031581693,-0.0008660934,1.3215683e-05,0.001468174,0.0028244285,0.0023411193,-0.005080269,-0.004439428,0.004136075,-0.0023460896,-0.0022873015,-0.0011185657,0.0028080428,0.0024290788,0.0015586156,-0.0004306727,-0.001937142,0.003856538,-0.0034516803,0.0040466622,-0.00460469,0.0016985213,0.00024167169,0.0018048157,0.0029200525,-0.0016444701,-0.0033812046,0.002385793,0.0029307466,0.0023158547,-0.0019786207,-0.003694687,-0.0039535942,0.0028333357,0.0025575617,0.0033756983,0.00023473115,-0.0016861332,-0.00070984353,0.0040577096,0.0040519806,0.0034046094,-0.0042018294,0.0031551407,0.0015386587,-0.0035608034,-0.0015487389,-0.0016362983,-0.0030528656,0.0040517785,0.0040095863,0.0034678602,-0.0024666537,-0.00059963996,-0.0042883735,-0.0034788921,-0.0022461996,-0.0010181542,0.0024125066,-0.0013233077,-0.00080111384,0.0043453835,-0.0043700226,0.004403929,-0.004578519,0.0028522105,-0.00261279,0.003292335,-0.0007558725,-0.0035073343,-0.00460066,-0.004844068,0.0014992356,0.0034536365,0.00012598131,0.003410744,-0.004879134,0.0025952286,0.0029866183,0.0017286539,-0.0028535114,0.0026687307,0.004441531,-0.004669024,0.0014408629,0.0038591006,0.00019246126,0.0019472066,0.0023538312,0.0006430605,-0.0029720054,0.0012585154
loadFromAttributes,-0.0015547853,0.00052408845,-0.002358931,0.0032966086,-0.0022613078,0.0019623598,-0.002926053,-0.004837319,-0.0015329485,0.004695177,-0.00047648072,0.0015886298,-0.003014616,-0.0024418875,0.002773417,5.9135415e-05,-0.0024311864,-0.0053373575,0.004450869,0.00044498456,0.00018235733,0.0010378555,-0.004243938,0.0039159516,0.0009830978,0.003924603,0.00162735,0.0016736987,-0.002492562,-0.0022960682,0.0014962497,-0.0044785487,0.0029860567,0.0011309127,-0.0032800816,-0.00041844492,-0.0030916578,-0.0006827716,0.003240569,0.0008083408,-0.004235573,0.0009311043,-0.0036427805,0.00027780313,0.0010731055,-0.003859446,-0.0017576803,-0.00023305696,0.0035740363,0.0018919711,0.0029361197,-0.00086720043,-0.0037811045,0.0038243204,-0.0004963477,-0.003244041,-0.0026639157,0.0031655775,-0.004632294,-0.0040399684,0.0013476927,0.0038227898,0.004057001,0.00065028074,-0.0007894873,-0.0031213488,0.0015754947,0.0027764293,-0.005095607,0.003128925,-0.0009841068,-0.0026204085,-0.0010872742,-0.002516094,-0.0004955155,-0.0007716642,-0.0039024751,-0.00011497204,0.00017175202,0.005139386,0.0017575172,-0.0004186,0.0016727429,0.0030900214,0.0044447077,-0.00030941586,0.002078332,-0.0027975654,-0.002354353,-0.0007208873,-0.0028876613,-0.004294314,-0.001437463,-0.003383163,0.0037242055,0.0015708606,-0.0028705231,-0.0045054667,0.0048973593,-0.0027294348
onSetBackgroundDrawable,0.003062795,0.00453065,-0.0024349496,-0.0012920245,-0.0020972497,-0.0010162846,-0.0033397127,-0.0008326132,-0.0048813527,-0.0029237345,-0.00087871787,0.002083273,0.0023898224,-0.003290385,-0.003006664,-0.0010894976,0.00036202275,0.0038544578,-0.002599316,-0.002640095,-0.0046132333,-0.00494108,-0.003129637,-0.0041409303,-0.0024945366,0.0037473438,3.4313445e-05,-7.1630246e-05,0.004447083,0.0030915216,-0.0036172937,0.0049180137,0.0032306493,-6.414538e-05,0.0030366762,0.0027151108,0.0043576956,0.0025341667,-0.0033039271,-0.00061418116,-0.002284926,0.0042331032,0.004067013,0.001476125,0.0039857314,0.003387832,0.004451327,0.0027892964,-0.0016392949,-0.0015001957,-0.0016321589,-0.0019672364,-0.0010035081,0.0032750994,0.0049662585,0.0019919716,0.00018594008,0.004676422,0.00394458,-0.0033912503,0.003415783,-0.0019767126,-0.0006170245,0.0029174213,-0.0019409944,-0.0015833196,2.9538562e-05,0.0028927424,-0.0031201576,-0.00032360383,0.004170085,-0.0027604022,-0.001036215,0.001207933,0.0022601918,-0.0025017832,0.0033644626,0.0006816121,0.0014724899,-5.4508484e-05,-4.3165674e-05,-0.004359747,0.003326193,0.0033456574,-0.0042733573,-0.0022130634,0.0044872616,-0.0021258662,-0.0005147131,-0.0015359687,0.002201142,-0.0015442354,0.0021874686,-0.0017869921,0.0023255188,-0.0017307849,0.0028335964,0.0031369019,-0.0020089066,-0.0034192556
onSetBackgroundResource,-0.004756457,-0.0044261813,-0.0030594154,-0.002820169,-0.0010220705,-0.0045972997,-0.00036111232,-0.0018926817,-0.0032288602,-0.0003663753,-0.003539912,-0.0019928797,-0.0028941846,1.2301769e-05,0.0027268813,0.003554025,0.0029980247,0.0007069351,0.0035588017,-0.002289322,-3.2628785e-05,-0.00455745,-0.0019458083,-0.0032530094,0.0031587414,0.004410559,0.0013726567,-0.00419027,0.0007137768,0.0018276501,-0.0012592275,0.0047365366,0.0021100992,-0.0006440034,0.002376003,0.003149913,0.0009083223,0.0019271739,-0.0024862308,-6.71639e-05,-0.0020695885,-0.0043641957,-0.0031205118,0.0013053502,-0.003094371,0.0004901599,0.004600135,0.003005728,-0.0016526615,-0.0015970508,0.0021835456,-0.0031891514,-0.0019768917,-0.003688422,0.002094596,-0.0005978371,0.0002091149,0.003198031,-0.0035753003,0.0011831932,-0.0019367129,0.0036435148,0.0014435768,-0.00056124735,-0.0045318506,-0.0019300556,0.0048920573,-0.0038190351,0.0020686716,-0.0033373113,0.000536625,-0.0036501286,-0.003890446,0.00023605675,-0.002090919,-0.0003690429,-0.0032291245,0.000782905,-0.002190126,-0.0016612528,-0.001281986,0.0023484079,0.00032456865,0.004709761,-0.0011404247,-0.0036248069,-0.00019984554,0.0049978746,-0.00069092936,0.0009714926,-0.0033061588,0.0035281286,-0.0011702133,0.00024614163,-0.0010697831,-0.003231519,-0.002889683,0.0012986918,-0.0020038995,0.0025403847
setInternalBackgroundTint,0.0021336898,0.004126166,-0.0044418494,0.0013632291,0.0013106744,0.002143035,-0.003282265,0.002137239,-0.0025718757,0.0037382927,-0.0011964288,0.0015181346,-0.0010124957,-0.0004191299,0.00037001996,0.00285908,-0.0006199359,-0.0010831406,0.002826291,-0.0033992648,-0.004296312,-0.0025738843,0.0013138703,0.0038490184,0.0007415153,-0.002787924,-0.00057940633,0.0018660341,-0.00092753867,0.0046582883,0.00087405025,0.0031296033,0.003664633,4.3858356e-05,1.1591304e-05,0.0010369142,0.0024554974,0.0013818673,-0.0015242439,-7.8718485e-06,-0.0002380994,0.0029628277,0.0005922643,-0.004975012,0.004560387,-0.0019960406,0.0006613454,0.0017888241,-0.0015984054,-0.0031512526,-0.0006308127,0.0049480363,0.0015185408,0.0045990944,0.0023800544,0.001365288,-0.000743027,0.0028603969,-0.0030536829,0.0007377614,0.0037040696,-0.0009400194,0.004378325,0.0035822822,-0.0020323214,-0.0016156031,0.0032060815,-0.003907738,0.0047188303,0.0027413305,-0.0022262149,-0.0013374422,-0.00240724,-0.002725673,-0.0013055262,-0.0037044634,0.0019411938,-0.003312979,0.000869328,0.0034645132,1.1481271e-05,0.0030523657,-0.001822976,-0.002037195,0.002525942,0.0022606328,-0.0022844053,-0.0038134954,-0.0025790336,0.0047007473,0.00026314554,-0.0036893357,0.0042092297,0.004346662,6.81511e-05,0.003332056,-0.0027485678,0.0011970598,0.0016033136,0.004544891
setSupportBackgroundTintList,0.0027199103,0.0001777589,-0.002439824,-0.0002505763,0.0026632962,-0.0014707051,0.0013808878,-0.0029224746,-0.0016929931,0.003938815,-0.0053386623,-0.00028355766,-0.002873652,0.00033688548,-0.0019659281,0.0019392848,0.005114421,-0.0017750324,-0.0028177723,-0.004275559,-0.00378513,0.0001202465,0.0015555861,-0.0034464945,0.0012261223,-0.0045863437,-0.003675749,0.003363056,-0.001933209,0.00021667579,-0.004663087,-0.00282298,-0.0018184985,-0.00031523895,-0.0021745195,0.00483793,0.003951567,-0.0011912992,0.0024166787,-0.0018837218,-0.0037204728,0.0030023206,-0.0004342122,-0.0051473845,-0.004781903,-0.0034894138,0.0038095166,0.0025235803,-0.0030135298,-0.001698202,-0.00011852081,-0.004133262,-0.0006830557,-0.004382118,-0.001496139,0.00085631805,-0.0010404243,0.004569924,-0.0027832303,0.0039318814,-0.004410009,-0.00048763584,0.004346232,0.0037555243,-0.00084910286,0.0014111086,2.7324637e-05,-0.0034425855,0.0010737801,0.0009057129,-0.0031075398,0.00038485118,-0.0037827422,-0.004748631,0.00034483062,-0.0008222248,-0.00037632653,0.0013288236,0.0002805379,-0.0026413924,0.0013900427,0.004232329,0.002408101,0.00020733349,0.00031252153,0.004223524,0.00057942094,0.0025999772,-0.0016840374,0.0040327148,-0.0028556606,0.0013078674,0.00363154,-0.0009965161,0.0001955145,-0.0024284439,-0.0018785907,0.0032002318,0.0035388249,0.0030937726
setSupportBackgroundTintMode,0.0021456552,-0.0026114702,-0.0027782272,-0.0036430042,-0.0011650333,-0.001643003,-0.0010709154,0.00056467607,-0.0027565716,-0.0014654779,-0.000930552,0.0026151838,0.001169821,-0.0012279083,-0.003440119,-0.0019153223,-0.004477405,0.0034774882,0.00277419,-0.0008240457,0.0018910671,-0.0036801677,0.0014089368,0.0020523344,0.002605134,0.003408855,-0.0040865284,-0.0038692986,0.00037466877,0.002573395,-0.0043188944,0.002059111,0.003376945,0.0049506766,0.0014408332,0.00036070036,-0.0014948403,-0.0027483883,-0.0017958202,-0.0017849443,0.0025043522,-0.004442807,-0.0037200989,-0.0019810211,0.0014138849,0.00063977484,0.002058342,0.0032893126,0.00030339306,0.0020401506,-0.0033074985,0.00020310585,0.0047455444,-0.0022930664,-0.0003608456,-0.003065949,0.0032075632,0.0005626776,0.0018832801,0.003996631,0.0042082914,0.0023581039,0.0009014532,-0.002582341,-0.0053827744,0.0001688305,-0.004967904,0.001184243,-0.0033237038,0.0005685226,0.0010957756,-0.00019531988,0.0008174734,-0.0044608405,-0.0027386574,-0.004297223,-0.0026817555,0.004856747,-0.0027335538,-0.0039181323,-0.0040572034,0.0043401318,-0.0039778673,-0.0035180126,0.0035087059,0.003004332,-0.0034640708,0.0024416908,-0.0016606292,-0.004543096,0.003909167,-0.0019261333,-1.4280132e-05,-0.001712922,-0.002327205,0.003368757,0.0038695724,0.003175558,-0.0016130048,0.0018837082
applyButtonTint,0.0020130905,0.0049192933,-0.003612029,0.004260248,-0.0047959057,-0.002238402,0.0032674621,0.003394765,0.0038499164,0.0015748946,0.0028161644,0.0012624924,0.00020902717,0.0022761822,0.00021900349,-0.0020825902,-0.0018744501,0.0022367628,-0.0043990263,0.0042197346,-0.000438058,0.0029979243,0.0033090515,0.002330936,-0.0019032689,-0.0015659897,-0.00046667797,-6.016678e-05,0.0025424978,-0.003368153,0.0027006462,-0.002837966,-0.004290942,-0.00019921786,-0.0041677477,0.0019046543,-0.0046973806,0.0006487587,0.00045825148,0.0014155625,0.0014178546,-0.0033873566,0.0007973709,0.0042086598,0.0016463158,-0.0022872833,-0.004146172,-0.001334342,0.0033637034,-0.00090823584,-0.0008064801,-0.00027144165,0.0029802155,-0.00047696466,0.0042367913,-0.00056158693,-0.0027671298,0.0022578016,0.004267985,-0.0021431565,0.0018759995,0.0045341966,-0.0005854802,0.0037119468,-0.0032308656,-0.0040603466,0.0030539436,0.0023791043,-0.0049283244,0.0028174883,0.0031429313,-0.0031773022,0.0033665276,-0.0015829469,0.004231539,0.0010554016,0.00074511155,0.0037826698,-0.0035797409,0.005136039,-0.0021516015,0.00014316246,-0.00019834953,0.003061128,-0.0017662988,0.0020167008,-0.0019272303,0.0034265975,-0.0031925899,-0.004310885,0.0035601023,0.00081077096,0.0011327262,-0.0028078274,-0.00077581516,-0.0011145795,-0.002721154,0.0048541673,0.00400252,0.0016195483
onSetButtonDrawable,-0.004462107,-0.00094340916,0.0013852547,-0.0018034091,0.0033949884,0.004184858,0.0029072901,-0.002696399,0.0026758215,0.0026778588,0.004687623,0.004619343,0.0029950314,0.0030216523,-0.004915462,-0.0018217099,-0.003221356,0.001095602,-0.00072742795,-0.0020084535,0.0037511017,-0.0047853524,0.0034315004,0.0012913031,-0.0011013923,-0.0030757796,-0.00056367443,-0.0040747,-0.0021514252,0.003744017,-0.0027985515,0.0029131493,0.0038426926,-0.0029228465,0.003579386,0.0029706121,-0.004198373,0.0037386776,0.004019807,0.00020196137,0.001683611,0.0016792936,0.0014323051,0.0014711904,-0.0027369768,-0.003563369,0.00486592,-0.00032262594,-0.002683311,0.0048871175,0.004903764,0.0024641866,-0.0043435465,-0.0014619349,-0.004358819,0.002123542,0.0030371242,-0.001145568,-9.439507e-06,-0.0028929033,-0.0033185277,0.004204016,0.0047227307,-0.0024198524,0.00014444838,0.0016282619,-0.004776144,-0.0024712505,-0.0025785982,0.0032329098,-0.004409481,-0.004543192,-0.0028813705,-0.0040187137,-0.0023118386,-0.0029366706,0.004374489,0.004685937,0.0037952368,-0.004406383,0.002142119,0.002387677,-0.004660398,0.0023996818,-0.002337758,0.0049262005,-0.0032581652,-0.0047565503,-0.00029959335,-0.0022075225,-0.003877563,-0.0029352147,0.003182279,-0.00081095484,-0.00438004,-0.0012236612,0.0022846195,-0.0013089047,0.0028519693,0.0009030435
setSupportButtonTintList,-0.0010141034,0.0013333526,0.004470989,-0.0014857634,-0.0011056107,-0.004447397,0.00437074,0.0014058102,-0.0029680869,0.0002380898,0.0020839472,0.0027285249,-0.004481493,0.00012083102,0.0010716441,-0.0049804514,-0.0017787482,-0.0019433832,-0.0025639432,0.004688556,-0.0008639332,-0.0036609243,-0.002425077,0.003271853,0.0032762955,-0.0023349833,0.002862946,-0.0019940273,0.00256798,-0.003958378,0.0027527758,0.002423977,-0.0018439976,0.003566556,-0.0043735104,8.564144e-05,0.004063788,0.002510186,-0.004110276,-0.0012696525,-0.002349988,0.004584527,0.0016646447,-0.0042873723,-0.0018730739,-0.0030064036,0.0001370182,-0.0007824335,-0.0002952072,0.0037768113,0.0027422053,-0.0045820964,-0.002071025,-0.0018950433,0.0038152784,-0.0047391215,-0.004428906,0.0001598294,0.0025924854,-0.0026593995,0.003689745,-0.00062199356,0.00011286007,-0.0018533457,0.004259558,0.0042073163,0.003802171,0.0016219199,-0.0021063301,-0.0039299675,0.0011678118,-0.0023631915,0.00066025945,-0.0020522925,0.0022041535,-0.0011592227,-0.0016789683,-0.0018446618,0.0028411772,0.0039870436,-0.0017561933,0.0026207855,-0.003343752,0.0024530652,0.0014548945,-0.0018050116,0.001703996,0.0020281284,0.0033971234,0.004572204,-0.00023826756,0.0001608438,-0.002142079,0.0023885232,0.0040519023,-0.0034717305,0.0025930027,0.0040413584,0.0044406434,0.0009144264
setSupportButtonTintMode,0.001615907,-0.005081367,0.0025489728,0.00088026235,-0.0033254414,0.0037381467,-0.002989474,-0.0010973876,0.002670237,-0.002608127,-0.0051118974,-0.002310488,0.0024386195,0.003752006,0.0011314568,-0.0011930614,-0.00020136761,0.0008732607,-0.0011642638,-0.0012902605,0.00016304138,0.0016610083,0.0033615462,0.0043823295,0.0050063,-0.0009675094,0.00083551125,-0.0043249303,-0.004337325,0.0030656436,0.0030560896,-0.0024817851,0.0006429067,0.003765804,-0.0034603293,-0.0037887685,3.378644e-05,0.0027560354,-0.0038504046,0.0033084599,-0.0012841827,0.0025198113,-3.5669864e-06,0.0022994992,-0.0030347204,0.0044432255,-0.00020393103,-0.0039208108,0.0002550955,-9.5149946e-05,0.0033672906,-9.005642e-05,-0.00012366916,-0.0047685476,-0.004759251,0.0036332777,0.00075758,0.00088744436,-0.0038735478,0.0047562937,-0.0034098746,0.0013432191,-0.0010745801,-0.0038035105,-0.0044128043,-0.0030223706,0.0028895515,-0.002726064,0.0017097809,0.0017227734,-0.00023015657,-0.0027131245,0.004779117,0.0048042117,-0.0031563074,-0.0020744754,-0.0035767022,0.0015093227,-0.0044959555,-0.0027588238,0.0046921177,-0.00084798434,-0.003590076,0.0015340357,-0.004454367,0.0023721603,0.0024830115,0.0027577044,-0.0040899077,-0.00039170013,0.0035079084,0.0016967851,1.7133718e-05,0.0015618991,0.005162084,-0.0041982783,-0.0022674273,-0.0032221004,0.0030452071,-0.004874821
applySupportImageTint,0.0047267103,-0.0011493436,-0.0053794733,-0.0011064977,0.003997077,-0.0046366123,0.0043556644,0.0033223052,-0.0033364985,-0.00080470316,0.000557366,-0.00393027,-0.0024868778,-0.0014539466,0.0003184266,0.0027722975,-0.0033897501,0.0021319157,-0.0039623203,0.0016231313,-0.0033673025,0.0013636348,0.0010818833,-0.0047497554,0.0015155398,0.004262556,0.0023948983,0.0043292465,-0.00023515765,-0.003521853,0.00056024763,0.0023166814,-0.0004950883,-0.0027165173,-0.0010238969,-0.0035327103,-0.0023971386,-0.0037843604,-0.0005503396,-0.0021451619,-0.0036145325,0.0011330589,-0.0022588656,0.0033271776,0.005021978,-0.00014950715,0.0033967795,-0.0017597419,-0.0022059665,-0.0013637494,0.0017179173,0.0022104331,-0.00025544787,-0.002938897,0.0044525545,0.0049422933,0.0039749737,0.002724902,-0.0011929672,0.00012904678,-0.0006785723,0.0047638486,0.004748363,-0.00018105017,-0.00043893475,-0.00266562,-0.004239357,-0.0038796763,-0.0047485954,-0.0011810322,-0.0035603663,0.00137882,-0.00054936914,-4.8576163e-05,0.0037933951,0.0048453836,0.0028507344,0.0048676035,-0.0046937387,0.00053501397,0.003286934,0.0015241875,0.0036066864,0.0013491529,0.00091642205,0.0028537612,-0.0014817833,0.00037540938,0.003073754,-0.0047013885,0.0013415124,0.0010812249,-0.00019761166,0.003992539,-0.0010683271,0.0008754466,0.003740931,0.0026844095,-0.0031322774,0.0014902077
setInternalImageTint,-0.0029432538,-0.0016127547,0.0011556429,0.0008998528,-1.5945105e-05,0.002323429,0.00089794176,-0.0043711946,-0.004887847,-0.00037097966,0.0047394643,-0.001760975,0.00053366204,-0.0002656609,0.004503109,0.0009142082,0.0014451677,-0.0024715231,0.0013286959,-0.0052446625,-0.0046052122,-0.00093839096,-0.0012573769,-0.0007332309,-0.0016279587,0.0029354333,0.0034186451,-0.001025077,-0.0021243792,0.00037993336,-0.0041864943,0.002028176,0.00044587962,-0.001691753,-0.0005265666,0.0025317376,0.0033829245,-0.004898881,0.0028176387,-0.00074015115,-0.003000061,-8.9785e-05,-0.0028590648,2.090695e-05,-0.004659201,0.0005978606,0.0021614567,0.0010075211,-0.0040873666,0.0020872976,-0.003508435,-0.001406538,-0.00088204746,-0.0043819407,-0.00021148793,-0.00075618597,0.003759614,-0.0044882977,-0.004625398,-0.0026745407,-0.0025659876,-0.002579362,-0.0027926397,0.00021750525,-0.0023438758,0.003622034,-0.0034770342,0.002424302,-0.00034227487,-0.0029196062,0.003209018,-0.0018718304,0.004331683,0.0013611104,0.003373712,-0.004422826,0.0019100684,0.003499306,0.0048198868,0.004570937,-0.001611124,0.0004690892,0.00096154003,-0.0026087386,0.0041510607,-0.0028027804,0.00094957417,0.0047594877,0.004096623,-0.0023335929,0.0010590496,-0.000759764,0.00079332036,-0.0016988269,-0.0038546154,-0.0010727261,-0.0043339552,-0.0044865934,0.0029395616,0.0046515022
setSupportImageTintList,0.0011275213,-0.003925039,-0.0026732965,0.00082919607,-0.004264512,-0.0010104357,-0.0019133958,0.003695161,0.00069725624,0.0009700428,0.0017540911,-0.0030748588,0.0050221877,-0.0019555604,-0.0018022284,0.00021639773,0.0026587062,-0.0031441122,0.0030413738,-0.0036576162,-0.001326811,0.002753374,0.0040318915,0.0011345554,0.0032209645,0.0050360714,0.0038441033,-0.0042535514,-0.0045529613,-0.004905942,0.0041673533,-0.0021457782,-0.0009694027,0.003252982,0.00044671222,0.004177617,0.0035138135,-0.004524471,0.0028959687,-0.0019362502,0.0017215654,0.0041672755,0.00097023236,0.0036819938,-0.0016490972,0.0021519302,0.0003080261,0.0030398094,0.0047644116,0.0008723865,0.0019635803,-0.0041894214,0.004064544,-0.00078140356,-0.0031298737,0.003853465,-0.0037405465,0.0013476278,-0.0024849907,0.004491728,-0.001002065,0.0022935362,0.0010816911,-0.0048287082,0.0030309176,0.0022480949,0.004204442,0.002325327,-0.0004639813,-0.00055698684,-0.002172927,0.0016772773,-0.0031190116,-0.0032335208,-0.0003805534,0.004734813,-0.00235285,0.0021521645,0.0012008694,-0.0022962792,-0.0028823495,0.00042067264,0.004614074,0.0042064073,-0.0026104006,0.003840287,0.0003217344,0.0015107612,0.0011649455,-0.00034425096,-0.0040509664,-0.001961802,0.0044219,0.00204501,0.0041659744,0.0035691143,0.003612758,-0.0048828316,0.0020934017,0.0029236737
setSupportImageTintMode,0.0011692451,0.0028084796,0.0014387065,0.0021173425,-0.0010331193,0.0003429414,0.0030111487,-0.0016559055,0.00200205,0.004000234,-0.0012329224,-0.005048392,0.0011663501,-0.0011292598,0.0003164631,0.003036376,0.0048805773,-0.0043238117,-9.9954195e-06,-0.0038776689,-0.0048148734,0.00085214345,0.0036528194,0.00094053143,0.00304896,0.0042610825,-0.0008589588,-0.005190948,-0.0030323695,-0.003972982,0.0043883827,0.0033494346,0.001255418,0.004604617,0.00070917635,0.001605714,-0.00068777456,0.0020684104,0.004442597,0.0038634993,-0.0017719982,0.003664029,-0.0017073192,-0.004976216,0.0027431725,-0.0048188143,4.4782264e-05,-0.004202766,-0.0017899554,0.0003726538,0.0024991215,-0.0015460314,0.0024599014,0.00033097944,-0.003968839,-0.0012279382,0.0014801419,-0.00087731227,0.0007401776,0.0020015836,-0.0038532333,-0.0020908646,0.0044761617,-0.0015664705,-0.0024610008,0.0029561017,-0.00476628,0.00035317946,-0.0027859183,0.0009431992,0.00087501813,-0.0013578763,-0.0038001123,0.00298594,-0.00016935842,0.002056368,-0.0042594313,0.0045926753,-0.0047014225,0.0014139386,-6.4450905e-05,0.0016673628,0.0032142086,0.00029291547,-0.001716891,-0.00040799356,-0.0010225687,-0.004632129,-0.00035073105,0.0035732584,0.0008368143,0.0032803605,0.0028878036,0.00061284914,0.00339396,-0.00021785194,0.0038518421,-0.0023017845,0.002101226,0.0033170145
applyCompoundDrawablesTints,-0.00093886437,0.0038226098,0.0021556555,0.00437896,0.0017016069,-0.0015337388,5.2167255e-05,-0.0044066003,0.00409297,-0.0021257836,0.0025824588,-0.0051082238,0.0016894445,-1.9067982e-05,0.004609019,0.0009617837,-0.0042047054,0.00012785259,0.003626929,-2.9915369e-05,-0.0006729104,-0.0034921234,-0.00311244,0.0018019776,-0.001063612,0.0037534905,0.0005526723,-0.0053001135,0.00081897585,0.0042224014,-0.00241323,-0.0003714489,0.0030682953,0.004565405,-0.0030802009,0.0047946763,-0.00061859266,0.0034128977,-0.0032060894,0.0026496667,0.0025997814,0.0016053893,-0.0010280955,-0.00046181434,0.0034691673,-0.0028266096,-0.002628155,0.00018412653,-0.0036716068,-0.003676917,-0.0008163346,-0.0045062224,-0.004321847,-0.0015690898,0.0030148602,0.004717685,0.0036964824,0.0043202383,-0.00030809388,-0.0007758977,-0.0013191857,0.0040258616,0.0044435533,-0.004687693,0.0042095087,-0.003350027,-0.00055705354,0.0017181467,-0.0023446067,0.0002301945,0.0032724156,0.0031132998,0.0022518104,-0.004433969,-0.001800168,-0.0030301926,-0.0015487351,0.004294665,0.00060163427,0.00036319715,0.00023923718,-0.0019819054,-0.004138542,0.0030661984,0.0015442795,-0.0028740924,0.00035258115,0.003940862,0.005022908,-0.0045240214,0.00020897853,0.003987518,-0.0046012867,-0.0004988002,0.0038244603,-0.0036414987,0.0024436936,-0.0002539141,0.0036293336,0.003327256
autoSizeText,0.0019197324,0.0037120222,0.0005309893,-0.0012196106,-0.0026135552,0.00241675,0.0029425742,0.0041254596,-0.0034610678,0.0038305856,-0.00031132763,0.0012905844,-0.0041024177,-0.005176757,-0.0012683782,-0.0014270805,0.001693358,0.0044122674,0.00052805373,0.0029060636,0.0011390736,-0.0034653042,-0.0015517266,-0.00083754334,-0.0034409983,0.0038718497,0.0043275943,0.0022278766,-0.0039499034,0.0043009785,-0.0013361512,-0.002425115,0.002690429,0.00048467773,-0.0042071114,-0.0022911609,0.0034635498,-0.0016538553,-0.0005171746,0.0038881183,-0.0020912609,0.0039978377,-0.0038283214,0.00031634676,-0.0015152438,0.0033695418,0.00016088893,0.0044666133,-0.004255124,0.0038532696,0.0019178616,0.0031243681,0.0042233607,-0.002289651,0.004341463,-0.0019655274,-0.0039557465,-0.0007045707,0.00267023,-0.0013199624,0.0012011814,0.0017462807,0.0038572208,-0.0026208565,0.0012957779,0.0047039194,0.0036213952,0.004304089,6.459582e-05,0.005307562,-0.0016978886,-0.0044871685,0.0022102434,0.00011935101,-0.0017651872,0.0019544212,-0.0004728709,0.0025160867,-0.0049319775,-0.0041355295,0.0025669977,-0.004456254,-0.0033123586,-0.0016177476,-0.0004668353,0.0004375423,-0.0015269214,-7.0320402e-06,-0.0013983038,0.0028405173,0.00034413705,-0.0027688546,0.0036141607,0.0036750627,0.0013310991,-0.0006625102,-0.002354938,-0.004997975,-0.0042518056,-0.0008530572
v0_0,0.00054407434,0.0041469736,-0.0027029421,0.0038574724,0.001762058,0.0017143318,0.0032431718,-0.0028764128,0.0030958732,0.004562657,-0.0033516083,-0.0038168975,0.0018442024,-0.0007842865,0.00050937,-0.0033262703,0.002486193,0.0044726175,-0.0045230063,-0.0032179183,-0.001946225,0.0016443403,-0.001720602,-0.0019146503,0.0047871526,-0.0037439275,-0.00093647506,0.0014881826,0.003946335,-0.0052974415,0.0025785821,0.0014809616,-0.0033968962,-0.0021299026,0.0025082112,0.0026482302,0.0025506963,-0.003994574,-0.0045897816,0.002717765,-0.0014208659,-0.0035686002,-0.0035562546,-0.003147396,0.0005361752,-0.0027278431,-0.0019849397,0.0031995478,-0.0023671554,0.0013458746,-0.0045121056,-0.002625821,-0.002020556,0.003090614,-0.0028203481,-0.0022352221,0.004994583,-0.0023632287,-0.004059818,0.0037490404,-0.002383226,-0.004697976,-0.0037639553,8.957475e-05,0.0035609887,-0.0038545923,-0.0039110035,0.0012009823,-0.0036795135,-0.00022382206,0.0046554557,0.00079965504,-0.001956138,-0.0045830943,0.00070304633,-0.0033556293,0.00081062346,0.0009430835,-0.0044665234,-0.0019654,-0.0027355973,0.004962385,0.0012482511,0.00023516134,-0.0041302666,0.000909383,-0.002129023,0.002460972,-0.00040632483,-0.0041187867,0.004155786,-0.00085498707,-0.0009805606,-0.002771867,0.00077193545,-0.0016170436,-0.001871903,-0.003206262,0.0032641005,-0.0027554706
v0_1,-0.0032793027,0.0040870863,-0.0029139481,0.001095138,0.0039009878,0.0035831346,0.0039695897,-0.0030577786,0.00088278315,-0.0035850785,0.0006735675,-0.003832732,0.0015127824,0.0010422056,-0.0004551409,-0.0019860729,0.0032703953,-0.0006904929,0.0011795927,-0.0025065888,-0.0013323737,0.004469262,-0.0034274696,-0.0026453785,0.0032177677,-0.0036236714,0.0015517978,-0.0005878105,-0.0045980294,-0.0013023868,0.0014760885,0.0018632219,0.001771446,0.0006215085,-0.0025905834,0.0030471396,-0.0002980246,0.0022021267,-0.0047608376,-0.0038375377,0.00075530907,-0.0036527473,0.0028386815,-0.00193669,-0.002750479,-0.0036019771,0.0028269065,0.0025056242,-0.0016277978,-0.0015036069,0.00371169,0.0023544307,0.0043983674,-0.0017448626,0.003116192,-0.003100295,0.0045199683,0.0015967074,-0.0030646129,0.0046752095,-0.00042305843,0.004591245,-0.00253661,-0.0041574463,0.0039242245,-0.0005385948,0.0027621933,0.0041556037,-0.004429013,0.0012930526,0.0039061368,-0.0010121389,-0.004714833,0.0027775862,0.0030700827,0.0018322383,0.004724727,0.004759074,-0.0045756074,0.0020256059,-0.001973613,0.0005148399,-0.0019683938,0.0015932416,-0.0043932535,-0.004150417,0.001544059,-0.0034242833,0.004245447,-8.4551546e-05,-0.0026778823,-0.00438449,0.0009421697,-0.0027102223,0.0043385047,0.0019180134,0.0009873717,0.0010916425,-0.004532165,-0.0043190406
onAsyncTypefaceReceived,0.0047385013,0.0034702828,0.0041418513,-0.0025192057,0.00080570683,-0.0042715548,-0.0018791748,0.0008397678,-0.0039073406,-0.0030267294,0.0022274256,0.00023092971,-0.00011943472,0.0035460882,-0.0049277367,0.0011387765,-0.0030232514,-0.005063494,0.0037460695,0.00026573,-0.0016785302,-0.002079077,-0.001878253,0.004304321,0.0013075072,0.0004147763,-0.004951628,-0.004805114,0.004389427,0.004425536,-0.002037733,0.0017363576,0.0025256965,0.0022324608,0.004091777,0.0045176134,0.0005960137,-0.004938875,0.004671682,0.0005599574,0.0009427179,0.0012312531,-0.000799286,-0.0009261673,-0.004001857,0.004418795,0.0021245137,-0.00061785517,0.00013223237,-0.0015665427,-0.0026030187,0.002146927,0.0016389132,-0.0026382047,0.0036688393,0.0029182078,0.003666252,-0.0047902972,-0.004891225,0.0021930188,-0.0003949731,0.0041698883,0.002753319,-8.300701e-05,-0.0028008097,-0.0015802105,-0.004868549,0.0042507406,0.00012551682,-0.00379717,0.0037691651,-0.00096584484,-0.0034728716,0.0048228255,-1.3144033e-05,0.0042978064,-0.0010902418,0.0037292617,0.0030718476,0.0028930665,-0.004073069,-0.0023536882,-0.004669184,0.001477379,-0.0019881632,0.004074017,-0.003169673,0.0019076514,-0.0013762793,0.00048376832,-0.0018883133,4.067629e-05,-0.0030110439,0.0031485325,0.0029265608,-0.0027177285,-0.003987679,-0.0043088174,-0.0019743715,0.0047773025
onLayout,0.003255934,-0.0029530718,0.0021580572,-0.002268785,0.0022846959,0.00449919,0.0041876324,0.004529777,-0.003330237,-0.0040850937,-0.0046637733,-0.003160731,-0.00137546,-0.004554048,-0.001811326,0.0033380066,0.0029482853,0.0019708304,-0.0021710182,-0.0030378604,-0.0022869564,-0.0037599043,-0.00029536363,0.0035707422,0.0023773438,0.00076076854,8.285433e-05,-0.005276008,-0.0039196117,-0.0020241775,-0.0025724242,0.0037633288,0.00070346263,0.0052997544,-0.0035023591,-0.0007023258,0.0037240135,0.0039642467,-0.004443179,0.0020557777,-0.0015945535,0.00087542064,0.0015617975,0.0020989592,2.2731738e-06,0.001551033,0.00089965947,0.0018984289,-0.001534079,0.0034279774,-0.0025082645,0.003962608,-0.0025722624,0.002356143,-0.004055411,-0.001707429,-0.003716584,-0.0005770319,-0.003118834,-0.00091874524,0.0041910084,-0.0035206818,0.0019433601,0.0028484554,-0.004756637,-0.004076399,-0.0014695271,-0.00012678184,-0.0045214198,-0.0037752222,0.0008322296,0.0002659958,0.0038417804,0.0037741535,-0.0002038263,-9.137823e-05,0.003747317,-0.0033862258,0.0029302035,0.003725589,-0.00027888227,0.0011224088,0.0025778092,-0.0012806926,0.002892106,-0.0048877858,0.0042090677,0.00027718925,-0.0023065286,-0.0051023145,-0.00013126316,-0.0043084505,0.0007099437,0.00041941105,-0.00092566217,0.003298078,-0.0042898534,-0.0016915109,-0.0012794394,0.0022610843
onSetTextAppearance,-0.00038531751,-0.0014374175,0.0038309635,0.0020901838,0.0024028204,-0.0024959329,-0.00090056635,-0.0016225408,0.0022402145,-0.0036632475,0.0015321333,3.8976345e-05,-0.00020398424,0.0011681904,0.002426191,-0.0031426158,-0.00050436583,-0.00043663435,-0.0017517284,-0.0010304581,0.0012829326,0.0021983315,-0.003216729,0.00054695265,-0.0009262569,0.0009496041,0.00031301918,-0.0008380437,0.003490034,0.0018049388,-0.0011622817,0.0013916057,0.00298601,-0.0005379312,-0.0011009575,0.0020364262,-0.002588188,0.0034993046,-0.00027718654,-0.0036659027,0.0002914379,0.00085044745,0.003863551,0.0013462683,0.00427335,0.0027850703,-0.0008558188,0.0008694548,0.0027840224,0.003789607,-0.0032572718,1.7035436e-05,0.0007340109,0.001964932,-0.0048950613,-0.0041985195,0.0010560291,0.0045843674,-0.003524981,-0.0018875728,-0.0032272092,0.0046795364,0.004197581,0.0038843497,-0.004063574,-0.000422281,0.0016968832,0.003938065,-0.00049937365,-0.0020495541,-0.00014534617,-0.004295195,-0.0032379495,0.003914111,0.0018213608,-0.0029456145,-0.0013377036,0.0033562349,0.00020976795,0.001520747,-0.0010777968,-0.0009344573,-0.0024510145,-0.0010304342,-0.0011117862,-0.0012254169,0.0017755363,-0.0003608872,0.00014753803,-0.004309384,-0.003991774,0.0029571282,0.0009569168,-0.0020936038,-0.0012330936,-0.004623006,-0.0023865167,-0.0029899147,0.0033677875,0.0026341407
setAllCaps,-0.0011307503,-0.0040659755,-0.0032196522,0.004612247,0.0022641674,-0.0031528724,-0.001275316,-0.0028012856,0.003988488,-0.001940791,0.0028468037,-0.002862863,0.002384397,-0.0023069142,0.0036598276,0.0028160878,-0.0017280664,0.003821351,0.0018394842,-0.003952768,0.0016068161,-0.0011922788,0.0043654395,0.0032252327,0.0044433507,-0.0042377957,0.001171298,-0.0011439784,-0.0028214918,0.0016456309,0.0032733863,-0.0008492999,0.0036487952,-0.0024918441,0.004063814,-0.00049157056,0.00080827397,0.0015490162,0.00040679486,-0.0016148459,-0.0019766346,0.0013313611,0.0015960523,0.0023672436,0.0037173766,0.0024559284,0.0013538979,-0.003927196,0.00503342,0.0020320762,-0.0027074837,-0.0021657983,0.0001927072,0.00069363567,0.0017475885,-0.0040134643,0.002582793,0.0029879021,-0.0016418233,0.004614303,-0.0008649567,0.0020759813,0.0026517,-0.0023182721,-0.00058475405,-0.0013781398,0.00031014322,0.00021589754,-0.0036685944,-0.00097343733,-0.0009486886,-0.002780436,-0.0007728995,-6.0924587e-05,-0.004410754,-0.0030453322,-0.0046456866,0.0023126954,-0.0013595575,0.00065364357,-0.0048716012,-0.0020023948,-0.0032863647,-0.0011632709,0.0034468658,-0.0046365466,-0.0005634569,0.00033219423,-0.0004363703,0.0017992237,-0.00090442953,0.0021256276,-0.004850528,0.0026357153,-0.0040522045,0.0006946452,0.0018091687,-0.00072873704,-0.0012993608,-0.0024090733
setAutoSizeTextTypeUniformWithConfiguration,-0.0035893985,-0.0006799249,-0.0018979124,0.004337107,0.0022985744,-0.0032487393,0.0030631772,-0.0017105744,0.001813507,0.00083159783,0.00441752,-0.00093581923,-0.003937298,0.0017783339,-0.0016954376,0.0024241419,-0.0018369853,-0.00343392,0.00316456,-0.003293578,0.0046081096,0.0011604181,0.002559267,0.0006674096,-0.004245675,5.5146687e-05,-0.0053614215,-0.0042891433,-0.00345173,0.002432073,0.00017052218,-0.0032560339,-0.0024750044,-0.0009568046,0.0038638823,0.004190443,0.004264498,0.0010128956,-0.00083699403,-0.002761811,0.000210087,-0.0048193685,-0.0024175243,-0.003874891,-0.00035466364,-0.0020838138,0.001454528,-0.0024776747,-0.0043564145,1.2414182e-06,0.004010525,0.003598695,0.003085054,-0.0045334483,0.003741988,-0.002312981,-0.0021496702,-0.003926182,-0.0038753182,-0.0021540662,-0.00023058793,0.005044254,-0.0021306048,-0.0013466182,0.0046686954,-0.0035079515,0.0019143468,-0.0026817163,0.0006343334,-0.0018741548,-0.00494159,-0.004669197,-0.0018419402,0.0005638841,-0.00094789127,0.002827503,0.0010603142,0.0046370225,0.0036850316,-0.0025051916,0.0047069243,-0.0042461595,-0.0013000949,0.004033846,-0.00020439939,0.00061116874,-0.0025214998,0.0049621616,-0.003306586,-0.0013330512,0.0030746069,0.003951873,-0.0016179775,0.0035039298,0.0049501252,0.0013879515,-6.8949164e-05,-0.0031850985,0.0043466263,-0.002909958
setAutoSizeTextTypeUniformWithPresetSizes,0.00030479935,0.003649003,0.003893284,-0.0042115725,0.0009158755,0.0042604785,0.0005139609,-0.00084526604,0.0039905882,-0.0018982324,-0.0031657151,-0.00050237495,-0.0017885076,0.0035493542,0.002577546,0.0034016208,-0.0037364531,0.0024389,-0.0017380699,0.0046675503,-0.0028433395,-0.0047291485,0.0017603936,0.0024534795,-0.0030203178,0.0031155283,0.0036896837,-0.005121927,-0.0015009156,-0.00402346,0.0023176777,-0.0036246718,-0.0008364015,-0.0011707402,8.96602e-06,0.00046854373,-0.004490162,-0.0009646684,0.0017437718,0.0015135595,-0.004572819,-0.003238162,-0.001309421,0.0040852013,-0.0033073276,0.0050364234,0.003775056,0.00030169368,-0.0013279174,0.004393618,-0.0007475388,-0.0020663103,0.0032332523,0.00022652224,-0.0023648154,-0.0024975627,-0.0010793854,-0.0017011468,-0.0038487967,0.0009972402,-0.0005502722,-0.0039123697,-0.0013438441,-0.0009196435,0.0014802534,-0.0007442511,0.0033360706,-0.0040156106,0.002089039,0.00345392,-0.0035586671,0.003451981,-0.0011222155,-0.0038538026,0.00457291,-0.00020388889,0.0015081621,0.0021110987,0.0032621326,0.0026915204,0.00053385337,0.0023313935,0.0024470435,-0.0043579927,-0.0013542066,0.003798104,-0.003071033,0.0049507027,0.0029690445,-0.0007531743,0.0011366721,-0.0005757969,0.0033959607,-0.0012368379,-0.00463122,0.003573301,-0.0030547478,0.004807885,0.002535217,0.0005529883
setAutoSizeTextTypeWithDefaults,0.0008483281,-0.0018299905,-0.0046172263,-0.004253819,0.0050233123,0.0014238639,0.004456202,-0.0042936844,-0.004880452,-0.0011650698,0.0017024616,-0.0022903318,-0.0006539419,0.0025850213,-0.0033700615,0.00095517945,-0.0016451338,0.002094388,-0.00028384023,-0.0027619787,0.003065009,-2.931462e-05,0.004167611,0.0015710952,-0.0015540181,-0.0036784152,0.002933813,0.0035786496,-0.00046791555,0.0030788013,-0.0039959583,0.004762674,0.004872278,-0.0012755725,-0.0030308738,-0.0005791367,0.0025732,-0.00037704935,0.00255669,-0.0034195075,0.0031063773,0.0035854422,-0.004727036,-0.00041042874,0.004399056,0.0026809536,0.0014847515,0.0014154329,-0.0024657026,0.0028976838,0.0033906456,-0.00055331836,-0.00037562597,0.0026057144,2.0524061e-05,-0.0019842286,-0.0003289638,0.0039105834,-0.0027273695,-0.0034666124,-0.002067758,0.0016077618,-0.0043829456,-0.0012669116,-0.0040760003,-0.0043078023,0.0015171901,-0.0036331648,-0.002880175,0.0030860591,-0.00046327754,-0.0043882024,0.0026086662,-0.0010972461,-0.0019820041,-0.0036477472,0.0008019559,-0.0021793488,0.002813632,0.0030362154,0.004057856,-0.003542409,-0.003083652,0.0042664986,0.00033752495,0.005275867,-0.0021087478,0.004355306,-0.0012779558,-0.0031129338,0.0016398103,0.0010411581,-0.00073210825,-0.004283862,-0.0040724054,0.0010261681,-0.0020183471,0.0034416302,-0.0019153615,0.0003372047
setTextSize,-0.0022115046,-0.0041725426,-0.0015235541,0.0016815474,-0.0039098505,0.0031234373,-0.0033617371,0.001641877,-0.0014060581,-0.0012742061,-0.0018422529,-0.0047346028,0.0032585373,-0.00057730905,0.0029251627,-0.0009261418,-0.0042137867,0.0046690744,8.0594895e-05,0.0040004714,0.0035870224,-0.0035945799,-0.004086429,0.004567654,-0.0032772347,-0.003283786,-0.0027616436,-0.0017068981,0.0044313017,9.658588e-05,0.0014811541,0.002443337,0.0046179877,-0.0014818673,0.00034329973,-0.0028847607,-0.0048611877,0.00062264537,0.00410346,-0.002783695,0.00027330362,0.0029090738,0.0017843739,-0.004406961,-0.00019930741,-0.002026279,-0.0037543953,-0.0028216357,-0.000108942084,-0.0042729,0.0022926545,0.0011890754,-0.0047318335,0.0031005845,0.004679674,-0.0027221665,-0.00349361,0.002471457,-0.00029722427,0.0040976787,0.0019147228,-0.0029579643,0.0016194977,-0.00023858616,-0.0047193505,-0.0003514182,-0.003581665,0.0037317749,-0.00016146345,-0.0030058846,0.0016606228,-0.0038418556,0.0037434236,-0.0035879589,0.0046747825,-0.000167928,0.0017358866,-0.0015858685,-0.0012477926,-0.0030061335,0.0022621518,0.002893348,0.0015042786,-0.0032758329,0.00025885992,0.004895066,0.0044971234,-0.0017007964,-0.0042874846,0.0030952129,0.0052643283,0.0038771413,0.004225078,0.0032879335,0.0013624998,0.004503357,0.00344335,7.67211e-05,-0.003487915,-0.002269665
setTextSizeInternal,0.004240895,-0.0047611888,0.0033685977,0.004364773,-0.0020178896,0.0022047684,-0.0011761762,0.0029193324,0.0020565586,0.0037798875,-0.0018053885,0.0024585275,0.004517687,0.004042486,0.0024797863,0.004297137,0.004852291,0.0011883986,0.003229184,-0.0027012138,-0.00068795955,0.0024284725,0.0016056647,-0.0045241886,-0.0010751092,-0.0025353779,0.0015358856,-0.0012920763,0.0011434644,-0.0038111708,0.001401254,-0.004623302,0.0021278157,0.003736306,0.003969369,0.00089015753,0.00023111922,0.0014061496,-0.0030230684,0.00059612555,-0.003410405,-0.0015535803,0.0037060096,-0.0027798684,-0.0020631508,-0.0040595527,0.001093361,-0.0023760095,-0.0004132146,-0.003178262,-0.00016346244,0.0046529295,-0.00063869846,0.0003266326,-0.0050319307,0.0009851825,0.0042835143,-0.0014899697,0.0038358723,-0.0032696526,0.0016224699,0.003331582,-0.004324583,-0.0014435694,0.00017866713,-0.00024365674,-0.00036608678,0.0003943366,-0.004512912,0.00063498697,0.00282358,0.0042998786,-0.0017048131,-0.00037849127,0.0017974637,0.0011518743,-0.004180914,-0.0017124253,0.0008651846,-0.004104724,0.0009664756,-0.003154499,0.004751322,-0.0018822821,0.003838567,-0.0040992713,0.0021133085,0.0015798605,0.0038550915,-0.00049443025,0.0016381029,-0.0026741668,0.0003945132,-0.0009288559,-0.0024046162,-0.0019311187,-0.0046918504,0.00041177636,0.0026677973,0.0016699804
setListSelectionHidden,-0.002283802,-0.004549798,-0.0015817845,0.0039936523,-0.0042035356,-0.0019990862,0.0011535271,0.004121958,0.002237911,0.0036416298,0.002323007,0.0007397114,0.0016118904,-0.002405481,-0.0016608716,0.0016062737,-0.0014645902,-0.0017966501,0.00059015356,0.0043046125,0.0041377135,-0.0050496133,0.003340089,0.0030088278,-0.0046548983,-0.0011431591,0.0038117354,0.004536398,-0.0011555904,-7.0332776e-06,0.0013764793,0.0040505165,-0.00074127276,-0.0012037018,0.0018662069,0.0029689814,-0.003258367,-0.004803289,0.002422735,-0.004982057,0.0008711829,0.0041816267,-0.0033482895,-0.0006543404,-0.0049147545,0.0024804438,0.000671836,-0.004255309,-0.0036886297,-0.0018836552,-0.0040974664,-0.004227585,-0.0020673964,0.0023103547,0.00358471,-0.0016769527,0.0010150289,4.745862e-05,0.0040307255,-0.0030619826,-0.0019324572,-0.004398841,0.00018527226,0.0015037776,-0.0014643313,-0.0028597668,0.00060588156,8.101087e-05,-0.004512536,-0.0034047174,-0.0007148782,-0.0038773734,-0.0014470369,-0.0009115218,0.00021986471,0.004005461,-0.0004480026,-0.0047206855,0.002590846,0.0036284258,-0.0010302751,0.0015054886,-0.003152475,0.0034568275,-0.00022397698,0.0028812983,0.00012643487,-0.002505937,-0.002865055,-0.0048186197,0.0038621805,-0.0015198038,-0.0014270508,0.00073939376,-0.001932574,0.0019383996,0.002423374,-0.0044437125,0.00022218458,0.0027975517
onLongPress,0.0021038577,0.0012011477,-0.00089099375,0.0016751761,-0.0034870268,9.773271e-05,-0.0019723675,0.002340132,0.004520326,-0.00026404927,-0.0012013693,0.0023484228,0.0026397512,-0.0028158561,-0.00082630693,-0.0029792655,0.0011266746,0.000113768605,-0.004067842,0.0039037676,0.0011308909,-0.00092818553,-0.0011391644,0.0048959414,-0.0024745804,5.0160306e-05,0.0023094092,-0.00042888778,0.001951877,-0.0040960014,-0.001902916,-0.0020907538,-0.004515942,-0.0036670358,0.0041737156,0.0015592936,0.0043463265,0.0031498836,-0.00146224,-4.0246825e-05,-0.0021480713,0.0025436296,0.002114423,-0.0048427996,0.0024102768,-0.0017456753,-0.0002839476,-0.0005597734,-0.0022928512,-0.004100201,-0.004080018,0.0029635148,-0.004686351,-0.0013720172,0.0042051184,-0.001558868,0.00201542,0.0032318202,-0.0027163362,0.0001567433,0.00061652774,-0.00091769925,0.0026399635,-0.0023532102,0.0022156246,0.0010015615,-0.0010865424,0.0008977481,0.00011283085,0.0019242106,0.0012149346,0.0020199812,-0.0012990262,-0.004357257,1.098505e-05,-0.0012692597,0.0011119473,0.0006164342,-0.0046506426,0.0025721746,-0.0024204364,0.0014193741,0.004103316,5.4572636e-05,0.0041045146,-0.003392876,0.0018834204,-0.00380248,0.0029125374,0.0029127863,0.00449503,0.0026558316,-0.0026862123,0.0015505615,-0.0006469995,-0.0019235106,0.0001032876,-0.004009848,-0.004757704,-0.0014990919
drawDividersHorizontal,0.0035613657,-0.0019349683,-0.0024002418,-0.00090068136,0.0019237718,0.0006885551,0.004819924,-0.0028185113,0.0025474108,-0.001609155,-0.0011050521,-0.0002838155,0.0012129329,0.003177435,-0.00022075488,-0.0017121424,0.0026885183,-0.005130372,0.0026820072,-0.003635068,-0.0013160489,-0.00038636653,0.00077342114,-0.004012246,0.0020425408,0.00010058403,-0.00051792647,-0.003587492,0.0039184312,-0.005224256,-0.002240306,0.004867486,0.00017070782,0.0007780177,-0.0007630085,0.004939813,0.0033753575,0.0014401488,0.003051229,0.002780199,-0.0021307443,-0.004872431,-0.00014975932,0.0043943063,0.0023678078,-0.0014426968,-0.0022099286,-0.0019013414,-0.0015510545,-0.003949693,-0.003046765,-0.0025590027,-0.002046519,0.0010118042,0.0015962016,0.0022569986,-0.0028844578,-1.9782077e-05,-0.0037240202,-0.00069760036,-0.0010942264,-0.0037637174,0.00070272124,-0.001991333,0.0025934663,0.0019776863,-0.003023082,0.0020243367,0.0037198719,0.00487076,0.00092732394,-0.0014256376,0.0029273618,-0.0014514215,-0.0030062296,0.0012686587,0.0048850426,-0.0033016545,0.0033689907,0.0026695414,-0.0032246981,-0.002513711,-0.0027599696,-0.0045409435,0.0017416958,-0.00078211864,0.00016477394,0.0040766215,0.0026203047,-0.0039015545,-0.004597769,-0.0006153073,-0.0034644469,0.000685367,-0.00013305809,-0.0022687418,-0.0016238197,0.0027857388,-0.00012401912,-0.0029712836
drawDividersVertical,0.0011921033,0.0037391407,-0.0005699002,0.00040044423,0.0018634137,-0.000849809,0.0023099382,0.003222469,0.0006943992,8.03897e-05,0.004644637,0.003365474,-0.0008037852,0.0020869032,-0.0040887203,-0.0047607073,0.0029522786,0.00071339135,0.0016061642,-0.0037438879,0.002936572,-0.004675441,0.0029485868,0.00051825,0.0016699311,-0.0037697072,-0.002469861,-0.00025675644,0.0013783992,-0.002763283,0.0043768845,0.00018124425,-0.0039429767,0.002924763,-0.0041538454,0.002350769,-0.0042161415,-0.004380404,-0.00074276293,0.0018173084,-0.004081021,0.0032542038,-0.0018390616,0.0041895965,-0.0024954358,-0.0034732083,0.0035741387,0.00010806736,0.003353126,0.0014852114,-0.0036489407,0.0013523917,0.0051062666,0.0036731584,-0.0019521592,0.001641803,-0.005110729,0.00082434714,0.0011796058,-0.001634003,-0.004135005,0.0019572447,0.0017435604,0.00058772526,-0.0038108204,-0.0003588183,0.00117769,0.00033601423,0.00083814515,-0.00086862495,-0.0017858923,0.002755108,4.200378e-05,-0.0035493288,-0.0011111922,0.0027789057,-0.0037082005,-0.002111872,0.0040483996,0.00066115905,0.0013415966,-0.0028405257,-0.0019419126,-0.002343367,0.0036248935,-0.0039055771,0.00406886,0.00047072137,0.002184069,0.0010509577,-1.2519575e-05,1.8482235e-06,-0.0015617338,-0.00021998673,-0.0046581584,0.0014981941,-0.0048404643,-0.0046852482,-0.0029495629,0.00013804126
drawHorizontalDivider,-0.0018243836,-0.0014227671,-0.0034308939,0.0003823757,-0.0035100821,0.0032839407,0.0001331243,-0.0011483785,0.0019408853,-0.002130638,0.0013565233,0.0021451432,0.0043633496,-0.0034863807,0.0010862057,5.8696998e-05,0.0004160704,0.0010500554,0.0024138603,0.0020480584,-0.0002715147,-0.002734375,0.000346273,-0.0041067847,0.0024812603,-0.0021773735,-0.0022438644,-0.0019405124,-0.0012040203,0.004357581,0.0036547005,-0.0026706306,0.004268091,-0.0016310078,-0.0013184561,0.0048155948,2.2450724e-05,-0.003202394,-0.0027909307,0.00158812,-0.0043101045,-0.0040846923,-0.0016849333,-0.0040917294,-0.0015749474,0.004335376,-0.0041009085,-0.004348578,-0.00081524893,-0.0036612712,0.0018558102,0.0020546322,0.0018224408,-0.00030361666,-0.0007551434,-0.0005441525,-0.0018439691,0.002071243,-0.0045188386,0.0044464725,0.0022475114,-0.0017607139,0.0014975161,-0.0034252992,-0.004710601,-0.0014676031,0.001772791,-0.002523293,-0.0007146515,0.0047508273,-0.001869303,-0.0010416076,-0.0016977362,-4.0453746e-05,-0.0027805364,-0.00019725165,-0.0019124537,0.003034743,-0.0015869362,0.002300346,-0.0012189094,-0.0009097097,0.0031721955,0.0031089939,0.0032342318,0.0023100208,-0.003764309,0.0017907647,-0.000806474,-0.004315237,-0.00024042012,0.0035738382,0.0043623256,-0.0005836546,-0.0024018753,0.0017740163,-0.0032060358,-0.00377392,-0.00034436083,0.004868506
drawVerticalDivider,0.0016081078,0.00022699825,0.0043941545,0.0010197664,-0.002853511,-0.000559065,0.0004679248,0.0037670874,0.002787226,0.0033153153,-0.00069885695,0.004077,0.0034858268,-0.0017002354,0.0016285715,-0.003961488,0.0011035588,0.00040331797,-0.003957454,-0.0030277465,-0.0046141082,0.0031038246,0.00048259884,-0.0010507413,-0.004530964,0.0043695727,-0.004450114,0.004279703,0.004483964,0.004230905,-0.0038483539,0.00014644739,-0.00500137,-0.0009621138,-0.0014912445,-0.0013724401,-0.0022137777,-0.0017407557,-0.0030013174,0.0011197032,0.0049729035,-0.00464728,-0.0030586743,0.0038886808,0.00063395174,0.0016938027,-0.004723664,-0.00047188238,0.0047902996,0.00468196,-0.0005580562,0.00089186896,0.0007014353,0.0042056534,0.0013689161,-0.00254769,-0.0023018555,-0.002247351,-0.00031389284,0.005033866,-0.00078009325,-0.00046896556,-0.0012942583,0.0036434645,-0.000984742,0.0039296076,0.0021545212,0.0020590865,-0.00087943627,-0.0018273479,-0.0025337941,-0.004887388,-0.0022444467,0.004816445,0.0030006252,-0.0035638534,0.0046614497,2.228985e-05,0.00024205803,0.0015886843,-0.0030150048,0.004045653,0.0031251346,-0.0010285139,0.0027686546,0.0030502763,-0.0023775867,-0.0010915941,0.0002765071,0.0019248202,-0.00095991977,0.0049306336,0.002091908,-0.00401375,-0.0025044915,-0.0026771906,0.0047218394,0.0031628364,-0.00092235924,-0.003373377
layoutHorizontal,-0.0042103445,-0.0017279373,-0.0008194341,0.0046645096,0.0019482352,-0.000803596,-0.0015338258,-0.0039418954,0.0031960902,-0.00074566994,-0.005145035,0.003481525,0.0003617469,0.0011114186,0.0036374177,0.001654854,0.00095240073,0.0006891148,-0.003080462,-0.0036545005,-0.0010917367,-0.003435267,-0.0011429098,0.0037330838,-0.001931933,-0.004840276,-0.0025193102,-0.000320482,0.0012387525,0.00413269,0.004164961,0.0007796258,-0.0033069104,0.001449754,0.003802274,0.0040378077,-0.004889293,0.0040919245,0.00221187,-0.0006741149,-0.0013336635,-0.00069569395,0.0003604019,0.00271765,-0.0037391314,6.593818e-05,0.003814872,-0.0015438714,-7.165702e-05,-0.0028640325,0.0008091389,0.0037793934,0.0044847727,0.0005877229,0.0014286488,-0.0039996896,0.0004430725,0.0010300111,-0.00086470955,0.0014558121,-0.0032843433,-0.0021020188,0.0017927851,0.0020570874,-0.002345632,0.0026006228,0.0018641644,0.005109525,-0.0029735554,0.0035880115,-0.0036806236,-0.001209347,0.003583534,-0.003938586,0.0014982199,-0.0030855709,-0.0025204036,-0.0047889464,-0.0015202301,-0.001992481,-0.0041744993,0.003708039,0.0018553152,0.0023205015,-0.0019572575,-0.0023071107,-0.0018397929,0.0004522559,-0.003404035,0.002068113,-0.00012231858,-0.00088993605,0.0007830598,0.0034776158,0.0029342056,0.001027291,-0.0030267388,0.0023781382,0.0040704296,0.00064440584
layoutVertical,-0.0026216623,0.0038656215,0.004044272,0.00449068,0.0046720905,0.004467586,-0.0018699813,0.002554058,0.0046724095,-0.00073208235,0.0016466393,0.0042813304,0.004878583,-0.0034585088,-0.0017971509,0.0004165211,0.0035095683,0.0015893516,-0.0040274467,0.0041980166,0.0007145395,0.0048977057,0.004745792,-0.0033266551,0.0022551045,0.0019461657,-0.0013382274,0.0010130352,-0.0018207456,-0.0026944473,0.001353666,0.00019753497,-0.0012015605,-0.00041126402,-0.001569464,0.0024483087,-0.0030230738,-0.0047225486,-0.001463979,-0.004165298,-0.0032157726,0.0020297698,0.0025758874,-0.0010748227,0.00023787125,0.0016228851,0.0045436975,0.0016216271,-0.002776822,-0.0027563067,-0.00081826496,-0.0023572277,-0.0021941978,-0.004363035,-0.0018205364,-0.0038509814,0.0017070235,0.0028566152,-0.001493481,0.0037394743,-0.003974511,-0.0014576782,0.0041277106,0.0021311156,-0.0049488945,-0.0027322902,-0.0019542954,0.0006196488,-0.0025846858,0.004659031,0.0018808924,0.001841049,0.00043707603,-0.0007479823,0.002122069,-0.00079055515,-0.004535623,-0.00032932768,0.0041730716,0.0021167095,-0.0018839267,0.00023788757,-0.0044593397,0.0017752824,-0.0031738547,0.00043255536,-0.0026703144,-0.003854396,-0.0024585498,0.00039656658,1.5643636e-05,-0.0031770482,0.002949446,-0.0021597254,-0.0017413326,0.0042243702,-0.0012357314,0.0047712144,-0.0025454802,0.0045963456
measureChildBeforeLayout,-0.001694105,0.0007621866,-0.0033152413,-0.004193608,-0.0010035947,-0.0044835373,-0.004325501,-0.0017947103,-0.0038213772,-0.0027883656,0.004228735,-0.0023329186,-0.0018176904,0.0013292826,-0.0024489062,9.601035e-05,0.0012647578,-0.0025326768,0.001665965,0.0008581145,0.0019272565,-0.0030791175,0.0009885284,0.0029343637,0.0010256162,0.0020718896,-0.0028028341,-0.0037072045,-0.0019064108,-0.0031906832,0.0045541464,0.00053510815,-0.0018495411,-2.7054868e-06,-0.004246607,0.00042203988,0.0042168773,0.0012350328,-0.00024378306,-0.00082160154,0.0026680601,-0.0013455186,0.00486049,0.0028178298,-0.004116046,-0.0011143833,-0.003727427,0.004080167,0.0036840688,0.0016757967,0.0017445268,0.0016341627,0.0025767363,-0.0027032357,-0.0045276303,-0.0020956683,-0.0014575168,0.0034880962,-0.00021705078,-0.0027221406,0.00033323496,0.0029075926,-0.0045027784,0.0010761584,-0.00020709021,0.0007998147,0.0019516818,-0.0042305267,0.0018227102,0.004165777,-2.4226538e-06,-0.004874652,-0.0046613985,-0.0008744917,-0.0023576787,0.0022011653,0.00016924558,-0.0031620085,0.0026221795,-0.0004951434,0.0009193105,-0.0009711612,-0.0027220026,0.0052867616,-0.0028679871,0.0050207167,-0.005034707,0.0019488939,0.00017906365,0.004753585,0.004111594,0.0026991365,-0.00071263174,-0.0016448657,0.003932,-0.003579769,-0.0008886297,-0.0031304834,-0.005026724,0.0019697042
measureHorizontal,-0.00031133165,0.0017471428,0.0030679463,-0.0016166518,0.0027490063,-0.0027155282,0.0007748184,0.001670137,0.0010606494,0.0012655787,0.0006118511,0.0021845105,0.0051126853,0.0032076729,-0.00055559236,0.0034885718,-0.000936471,-0.0006392216,0.0024428177,-0.0024813828,0.0035406097,-0.0008844001,0.002619826,0.00083123567,0.002482716,0.004149386,0.0034820596,0.0043917093,0.0017157851,0.0035046337,0.00018571745,-0.0009982106,0.0008583405,0.0027470149,-0.002930228,-0.0022504493,0.0027835697,0.00088242855,0.00418178,-0.0003680654,0.0015903311,-0.001192111,-0.0037497035,-0.00021949598,-0.004062109,8.903654e-05,-0.0034805431,-0.00034813682,-0.0003521263,-0.0011948651,0.004236389,-0.0033939574,0.0011509642,-0.00244557,0.0014217767,0.0032199791,-0.0029692596,9.482224e-05,-0.0022019155,0.004753175,0.003972835,0.0038687666,-0.0021404526,0.0007989421,-0.0024489306,0.0001003294,0.0040102648,0.0011362185,0.0042160675,0.0013045517,-0.0018786725,0.0033759966,-0.003277002,-0.0017968068,-0.003504765,0.0012234617,0.002681386,0.0016532312,0.0020411697,0.0016541202,0.0026965623,-0.0018287838,-0.0024237467,0.00024606643,0.00307577,-0.00082600524,0.00070644193,0.0010719929,0.004341714,-0.0031461925,-0.0045032473,0.0017608665,9.320741e-05,-0.002261989,0.004405787,0.0036378263,0.00011087683,-0.002341273,-0.003501665,0.0028452598
measureVertical,0.0035604178,-0.0040013595,-0.0048821364,0.0023492142,0.004106029,0.0013379735,0.0047293985,-0.003534086,-0.004338553,-0.0015599187,0.0034031256,-0.0019702562,-0.003128969,0.00028478084,0.00016544638,-0.0029534325,-0.0020621924,-0.004327706,-0.00026610703,-0.0003371492,0.0009910709,-0.0015288541,-0.001207091,0.0024650064,-0.00081271544,-0.0043643303,-4.059629e-05,-0.0035900248,-0.0016314345,0.00024644786,0.002810175,-0.003539372,-0.0048000608,0.004635404,0.00081713113,0.0043848325,-0.0017304166,-0.00096090604,-0.0031160002,-0.0034615973,-0.00038453558,-0.0020461585,0.0016278648,0.00054067303,0.00047988584,-0.0027260983,0.0009731514,-0.0021167737,0.004483769,-0.0045549097,-0.00014174086,0.0038755033,0.0042052753,0.0016693083,-0.00029987248,0.0039653345,-0.0010137415,-0.0025386063,0.0014218545,0.004048198,-0.0007172454,-0.0015222689,-0.0017791316,0.0038174056,0.0036034542,-0.0048904824,0.0011329995,-0.0022797475,-0.0009117033,0.0021306025,0.0027841635,-0.00014697657,-0.0037395372,0.0044465247,0.0016906633,0.0010715689,0.00076509843,0.0043057813,-0.003108522,0.00032741067,-0.0012589127,0.0019321791,0.0007735922,-0.00062035845,0.003579653,0.0012823897,0.0022271178,-0.0037411968,-0.003552518,-0.001395363,-0.0024998635,0.0024559263,0.0017781537,0.0032001506,-0.004364067,-0.004360553,0.003409103,0.004254732,0.0049197283,-0.0011207127
doAfterTextChanged,0.0046860888,-0.0010872694,-0.004639188,-0.0004188111,-0.0028537258,0.004889103,-0.001651314,-0.0010083282,0.0016789539,-0.00056193443,-0.0003581776,0.0042273267,-0.0037908067,0.002018778,-0.002894708,0.004588771,0.0013498449,-0.0012197758,-0.0011905094,0.0044470043,0.0023805266,0.0038748698,0.004435318,-0.0019927796,-0.0033314945,-0.0049525797,-0.0010636129,-0.00025591927,0.004363995,-0.00058763183,0.0041357772,-0.00012032665,-0.0034410772,-0.0019086224,0.002652005,-0.00044003042,0.0030920515,0.0025089125,0.0022245045,-0.0038148426,-0.0025348158,-0.0011954556,0.0018012733,4.1969644e-05,0.0024811851,0.001601552,-0.00060830417,0.0011058904,0.0021196597,0.0035975075,0.00012977296,0.0010736487,0.00056711666,-0.003652656,-0.0014186095,0.00434376,-0.0013639966,-0.0012097333,0.0025776175,-0.0048268125,0.0042003463,-0.0044323094,0.0042892643,-0.0039202757,-0.0012075393,-0.0024743993,-0.0048783403,-0.00040340354,-0.0034646853,0.0044928547,0.00031159358,-0.004461947,0.0024049818,-0.003439725,0.00356507,0.0005766399,0.0010660131,0.0009921272,-0.0044555734,-0.004615018,0.0041261953,-0.002802236,-0.0025752014,1.588344e-05,0.0048249615,-0.00048688913,-0.00451937,-0.0031292168,-0.004089627,-0.0041875,-0.003955204,0.000114583076,0.00035541606,-0.0019678192,-0.0018478454,-0.0033594326,-5.089245e-05,0.0007495649,-0.0030356662,0.0038151473
doBeforeTextChanged,-0.0031419115,0.0030371773,0.003619309,0.0020294436,-0.0020347289,-0.003356864,-0.0026306917,-0.0040725484,0.0019484123,0.0012896982,-0.0048983404,-0.0025581785,0.002952066,-0.0005639244,-0.001912856,0.0021533847,0.0013750087,-0.0019154843,-0.001368079,0.0047862907,0.004253169,0.0018720867,0.0017868334,-0.0046583284,-0.0003903879,-0.0044832802,5.1433348e-05,-0.0024739844,-0.004548076,-0.0037189375,0.0010137759,0.0014648405,-0.0014363119,0.0031261777,-0.0023032473,-0.0031008206,-0.0033210162,-0.0015682321,-0.004027466,-0.0019353859,0.0025527969,0.0021829607,-6.2814406e-06,0.0030813967,0.0008958119,-0.0016211707,0.0016519937,-0.004865539,-0.0024211556,-0.003859183,2.2796741e-05,0.0039081103,0.004586009,0.00433364,0.0038291065,-0.0039647203,0.0014012733,0.0036036277,-0.0030998283,-0.0035406337,0.0046278904,-4.9308605e-05,0.0033070259,0.0019093115,0.0044004233,0.0034297425,0.002707289,0.0021096782,-0.0027680392,0.0012644518,-0.0049868706,0.00088617456,-0.0018011535,-0.001595402,0.00078407984,-0.001151326,0.0040115914,0.0010538726,0.0041862717,0.00431057,-0.0012975016,-0.0007908252,0.00046344174,-0.0033130464,0.0014551559,-0.0032641604,-0.0023091857,0.0033033348,-0.0005898615,-0.0036500897,0.001431344,0.00034952306,-0.003950663,0.00068178383,-0.0026850821,-0.0012229948,-0.0008684396,4.5198165e-05,-0.0015636885,-0.0038689224
ensureImeVisible,-0.004723649,-0.0031069657,0.0037349092,-0.0043553156,-0.00012235297,0.0017441572,-0.0032200052,-0.0015710922,0.0003210385,-0.0010603125,0.0036182455,-0.002561916,0.0034978609,-0.0017111693,-0.00082714617,-0.0025247096,0.0052846246,-0.00059129595,1.4852854e-05,-8.175666e-05,0.00080368633,0.0043713343,0.0013204641,-0.0027719052,0.0020876636,-0.0012593204,0.0016195695,0.0019381071,0.003432346,0.00013721126,0.0015828357,-0.00036703105,-0.0014050115,0.005202247,0.0027664844,-0.004804515,0.00024407372,-0.0031887838,0.003914744,-0.0044366727,0.0013252357,-0.0050774193,0.0018122569,-0.001071359,0.00519589,0.0031805234,0.0014606186,-0.0022779994,0.0032942072,-0.0031682167,0.00014892455,0.0027274978,0.0051415698,-0.0038342539,-0.00079933525,-0.00467485,-0.005352805,0.0013203376,-0.0031835018,-0.0020532855,0.005075776,0.0009084227,0.0018724463,0.0040576966,-0.0002560579,-0.0020235032,0.0005405834,0.0014584927,0.0028393914,-0.0021970135,0.0029331583,-0.0028522105,0.003348799,-0.0016099276,0.0016563229,-0.0035862455,0.0046521453,3.2718257e-05,-0.004687195,-0.0014568095,-0.0021174026,-0.00421883,0.0040643867,-0.0005962514,0.00010902335,-0.00020344515,0.0010456712,-0.00472375,0.00049796887,-0.00026183578,-0.0008507085,0.00093410024,0.0006985341,0.004590231,0.0015836938,-0.0041189115,0.004639193,-0.0007682971,-0.0019477105,-0.0017216374
setThumbPosition,0.003979509,-0.0046351687,-0.0032958647,-0.004435973,1.5715428e-05,0.0030474402,0.0016683281,0.0013571852,-0.0012495343,-0.0040214015,0.0026669027,-0.001506704,0.00011313396,-0.001979741,-0.0028773972,-8.921986e-05,-0.0041368776,-0.0022745812,0.0013701266,0.0027024131,0.0030542882,-0.0019459935,-0.0030223704,0.0012212858,8.15287e-05,-0.0025084373,0.0007855082,-7.676634e-05,0.003203487,0.0013304701,-0.0023943405,-0.0043718494,0.00066690356,-0.0007262634,0.0028976044,-0.0023095265,0.0044672154,-0.004970403,-0.0019479819,-0.0042394036,-0.002594611,0.0028050737,-0.001511394,-0.002768439,0.001891679,0.0027197418,0.0039503565,-0.0016740093,0.004235877,0.0050611664,0.0041496456,-0.0015087863,0.0010506848,0.0027939354,-0.0042756856,0.0010804702,0.0017197087,0.0036842297,-0.0036117793,-0.0017596793,-0.0023974145,0.0006933443,-0.0048677353,-0.0047552474,4.923047e-06,-0.00402077,-0.00044248882,0.0031049352,-0.00033179362,-0.0012483647,-0.004755008,-0.0047739353,0.0004052297,5.0511942e-05,-0.0003991073,-0.0040560854,-0.0048130522,0.0016655339,0.001586258,-0.0034313563,0.0043721995,0.0049198787,-0.0016646832,-0.0035106405,-0.0045699948,0.0041736625,0.0030805448,0.0014054991,-0.004167671,-0.0015104135,0.0032782285,0.0049143233,-0.004457912,0.0023638848,6.8152665e-05,-0.0040835137,-0.00036598282,0.003507636,-0.0024859374,0.0004829016
addChildrenForExpandedActionView,0.0002584522,0.003572652,-0.0014299195,-3.141447e-06,-0.0012552826,-0.001538978,-0.0041114916,-0.0017808505,-0.0030926443,0.004952997,0.0007895826,-0.00058522756,-0.0009549186,0.00272344,-0.0019820975,0.0043802992,0.002550576,-0.002373777,0.0018571935,-0.0044125933,0.0029367672,0.0022589331,0.00065359985,0.004848546,0.0017796713,0.0048072156,-0.0014557024,0.00027751163,0.004052337,4.7746023e-05,-0.0016125119,0.0020611493,0.0048502735,0.00041395598,-0.0045150467,0.0015179015,0.002240554,0.0005533121,-0.0048357365,0.0033098094,0.0017321974,-0.0046145925,-0.004121886,0.0035776487,-0.0047021927,0.0003362157,0.0014298261,-0.0048954245,-0.0035410547,0.0010106128,0.0015244295,-0.0009859666,0.002103714,0.0018801163,-0.0048636277,0.0015300426,-0.0029245394,0.0013672002,0.0012052152,-0.004263741,0.0034718174,0.0010929003,0.0048091523,0.004486868,0.00011144727,-0.0029336552,-0.0049415277,-0.0007507279,0.004025025,0.0013169235,0.0026436576,0.0007791956,8.326582e-05,-0.0004164755,0.0031026618,-0.0012770676,-0.0033635518,-0.003168467,-0.00059609633,0.00013176359,0.004142404,-8.737226e-05,-0.0015257217,0.0010814616,-0.0012779194,-0.00026029922,-0.0007980886,0.003242031,0.00023219737,0.0042360676,0.0004137936,-0.00024247867,0.0011334103,0.0011675048,0.004736766,0.0014649039,0.0007938006,0.0010612066,0.0018304494,0.00286072
ensureCollapseButtonView,0.0015825666,-0.00147467,-0.0023642012,-0.00156399,0.0012205208,0.0016737725,0.0046514873,0.004127225,0.00085324585,0.0046886927,0.0017876863,-0.00038839038,0.0029099216,0.004432283,-0.003414673,-0.005223787,-0.0034701503,-0.0010693799,0.003167489,-0.003218978,0.0034772805,0.004893603,-0.0028819374,-0.0031202284,-0.004214868,0.0032708084,0.003945382,-0.0025730245,-0.0033671623,-0.0035164885,0.002932906,-0.0027325964,-0.0029019073,0.0016067125,-0.001770091,0.004538225,0.002672535,0.0035271924,-0.002881993,0.0009098022,0.0014616676,0.00071838143,0.0032948935,-0.00044490202,0.0038030297,0.0026134402,-0.0007494746,0.004166695,-0.0037768001,0.0018529532,-0.0008872049,0.0018285852,-0.0044698208,-0.0046873223,-0.0039494573,-0.0045536845,0.0021930127,0.002474379,-0.0008522297,0.0010311228,0.0031689876,-0.004160764,0.0032074118,-0.00058864977,0.0014779943,0.0013892292,0.002551693,-0.0031199947,-0.004879971,-0.0028623557,-0.003093066,-0.0044061295,-0.00022364967,0.0007310476,0.0013364097,-0.002318084,0.0009243287,0.0049063964,-0.0026680129,-0.0033898377,0.003959252,-0.0016270226,-0.00061685115,0.005360446,-0.001354067,0.0048365095,0.0036552583,0.00068033737,-0.0023157778,-0.0032426734,0.004787666,0.0011947205,-0.00030652204,-0.0018415608,-0.0015489939,-0.00018582205,0.0021772257,0.0019953588,-0.003910977,0.0022889136
v0_2,-0.003510762,0.0034147864,0.0050922013,-0.0012943597,-0.001028643,-0.0029186762,-0.003249863,0.0006304957,-0.00027365578,-0.0016700588,0.0034177124,-0.0033974145,0.0046189073,0.00298966,-0.0014482769,0.0008090749,-0.0009922733,-0.0007342668,0.0012970585,-0.003277323,-0.0048196907,-0.003313061,0.0004533454,0.0027316667,0.0017698904,-0.0033001103,0.004064974,0.0019744218,-0.005074111,0.0005189924,-0.003110386,0.0033283106,0.001696142,0.002415725,0.0031278003,0.0035838394,0.002555958,0.0012550413,-0.00374237,0.001014196,-0.002948598,0.0017169055,-0.0014898309,-0.004314214,0.0030034403,-0.004610831,-0.0044669947,0.0047616484,-0.0015272049,-0.0003599628,0.0029617045,0.0004414907,-0.00037165175,-1.5433123e-05,-0.0034232945,0.0038892124,-0.00054550666,0.0009987169,0.00089029403,0.0014825898,-0.0036097674,-0.004406449,-0.0041095056,-0.00436006,-0.0025880232,0.0031787741,0.0046116076,-0.002331944,0.00030765097,-0.0025364114,-0.0005986814,0.00016556993,0.0020749832,-0.0017466311,-0.002071382,-0.0018049286,0.004824876,0.0010099999,-0.00059988734,-0.00026561494,0.0013073414,0.0048911464,0.0023564657,0.0050191926,0.0024099157,0.0012439544,0.0044900062,0.0027664467,0.004036271,-0.002298265,0.0017625139,-0.0005371785,0.0008611153,-0.0028957974,-0.0024156529,-0.002478676,0.0034815446,0.0042771776,-0.002098585,0.0027633673
v0_3,0.0005035084,-0.00041374762,0.0031860797,-0.004392857,-0.003734134,-0.0014122266,0.00011848305,-0.002408527,-0.00359965,0.0012976438,7.42153e-05,-0.00080749916,0.0005528014,0.0047954223,-0.004130072,0.00278227,0.002221632,0.002576753,0.0032690319,-0.0018505383,0.00087824184,-0.0014556099,-0.0019085484,0.0014070289,-0.004013651,-0.0013562135,-0.0045209317,0.004136289,-0.004282097,-0.0010845099,-0.0015163056,0.0031279037,-0.0016279581,0.0010529644,0.004484529,0.0020530939,-0.0038888338,-0.003832742,0.00018875037,0.00028609173,-0.0038488545,-0.0050120805,0.0011702754,-0.004539358,0.0044137384,0.0019587295,-0.0012163246,0.0031771888,-0.0026836647,-0.004731555,-0.0012716443,-0.0031444086,0.0036920353,0.004439112,-0.0036687185,-0.0011163058,-0.0040691565,0.0030321574,-0.004697851,0.004566732,0.0016033652,0.001208636,0.0011648634,6.452897e-05,0.0010938348,-0.0005164733,-0.0007506952,0.0042218626,0.0033055616,0.003844437,0.00071584963,0.0007093394,-0.0048807138,-0.0021616018,-0.0042014727,0.0030410092,0.0004038442,-0.0037978694,0.003570592,0.003370114,0.0042587686,-0.0005701427,0.00054342655,0.0050373827,-0.0020560285,-0.0022062403,-0.0017509988,0.00019236865,-0.0047403257,0.0038265388,0.0030598163,0.0011264043,0.0021066293,-0.0024713075,-0.0032324304,0.0033111041,0.0041159643,0.004466685,0.0023779953,-0.0028381771
removeChildrenForExpandedActionView,0.00078326033,-0.0030424981,0.0010657886,-0.0008868754,-0.0020094928,0.00028622325,-0.00095186563,-0.000537744,-0.0013341309,0.0022923222,-0.005293752,-0.0012555955,-0.004236646,0.0020440975,-0.0046425555,-0.0010671883,-0.0006175795,0.003676882,-0.0035136251,-0.0020425157,-0.003687027,-0.003253576,0.00503602,0.0044930805,-0.003119923,-0.003051691,0.001190469,0.0034775208,0.0025620318,0.002339577,0.0034584675,0.00016768747,9.3199276e-05,0.0008210328,0.004404921,0.0047901,-0.00023662158,-0.0012402986,-0.0038279828,0.0004550179,0.0004377364,0.0038475012,-0.0029242253,-0.0052166814,0.0037391132,-0.002073128,0.004869232,0.00052323594,-0.00032952626,-0.004451263,0.0028426817,-0.0032774254,0.00086739456,0.00065395987,0.0020929482,-0.0010043845,-0.00010462474,-0.0033831175,-0.0040552714,0.0017843492,-0.002289085,-0.003832398,0.0049566627,-0.0014624927,0.0038931288,-0.0025593468,0.0037191252,-0.0028832497,0.001455342,0.0027955398,0.0005730517,-0.002497151,-0.0012184227,5.866184e-05,0.0014074382,0.0022738895,0.0024554562,-0.004774387,0.0010252604,0.0013020823,-0.0031217712,-0.003468133,0.0022583168,-0.0008893917,-0.0050740372,-0.0008338393,0.002462622,-0.004521738,0.00038363342,-0.0028782866,-0.003818746,0.00458786,0.0036339476,0.00012506702,-0.0008327085,-0.0036876113,0.0007110956,0.0043674163,0.0046218596,0.0018523758
v0,8.810623e-05,-0.0015926909,0.0033465568,0.0025206774,0.0045568077,0.0020423084,-0.004209131,0.0017434922,0.002372267,0.0032800236,-0.0015921902,0.0025343623,0.0026360166,0.001290522,-0.0002335819,-0.0029342931,0.0017089895,0.004887451,0.002489777,-0.0013739555,0.0034243849,0.0013661048,0.0015452591,0.0022175221,-0.0024165704,-0.0013014661,-0.001227072,0.0023556042,-0.0012599295,-0.0051012808,0.0008936216,0.00086744246,0.0043804063,0.0029201007,0.002863027,-0.004188971,0.0041800304,0.0013659415,0.0037624065,-0.0045112288,0.00042021592,0.005085611,0.0024442005,-0.004021366,0.0027540268,-0.0035481488,0.0023999407,-0.0006220834,-0.00024442427,-0.0019446044,0.003515229,-0.004385244,0.0021544038,0.0025018519,0.002452565,-0.0033583206,-0.0050146454,0.0028677217,-0.0015753553,0.0047573033,-0.002907975,0.0015293402,-0.0042465385,-0.0003533373,0.0021871757,-0.0022940417,0.0017604295,0.00046336712,0.0044363975,0.0001301882,-0.00011512286,-0.004406264,-0.0029510707,-0.000623497,-0.00055718794,0.0044242404,0.0015604184,-0.0033129281,0.002631173,-0.00415153,0.0040698345,0.004201713,-0.00031630846,0.0052301576,0.004132142,-0.00042027465,0.00097201404,0.0035510736,-0.004860863,-0.0033144664,-0.00084080576,3.198456e-05,0.004093493,0.0034692963,-0.002247526,0.0011738224,-0.0026743612,0.0023571828,0.0012958924,0.0048040156
v1_1,0.0043400954,-0.0039311405,0.004644739,-0.0036374547,-0.0032195405,0.0014137736,-0.0015800445,0.001476687,-0.00065535854,0.0016497296,0.003576377,-0.0022178036,0.0048759202,0.0025756974,0.004726313,0.0008991799,0.0033011658,0.0013917976,-0.0020167117,-0.0009804599,-0.0044842972,0.0026558351,-0.003303367,0.0016501503,0.0043240422,-0.0027850494,0.0036771009,0.0029775081,0.002925706,-0.0010758473,0.0010206139,-0.0033307797,-0.00095329585,-0.0016835575,0.0049763923,-0.0026742406,0.004406609,0.004197184,-0.0044597927,0.0036469593,-0.0031412719,-0.0038129725,0.0022942242,0.004399782,0.003724653,-0.0030759808,0.0016102924,0.0011359423,-0.0006585399,0.0007474351,0.0028238727,-0.0006222904,-0.0032107907,0.00077613426,-0.004599034,0.0007843257,-0.004052938,-0.0009265899,-0.0051660184,0.00471773,-0.0028658155,0.0027452626,0.0012008274,-0.0020885137,-3.1477484e-05,-0.00097389607,-0.002223624,0.0047634924,-0.0036474746,-0.001934201,0.001908136,0.0018511529,0.00046002548,0.00500155,0.0014184301,0.0012028426,-0.0020206487,0.0008476403,-0.0040999856,0.0014706693,-0.0038329253,0.0019368747,-0.0032000085,-0.0021365718,-0.0027323046,-0.00088969024,-0.0010111595,-0.00290627,-0.0042526484,0.0047698617,-0.002114578,0.0029746916,0.0016904314,0.0026255667,-0.0022099642,0.0036631816,0.0033929169,-0.0036241163,0.0021080524,0.0025883801
hide,-0.0010552767,0.0043146475,-0.0011811011,-0.0023813557,-0.0029358943,-0.0040820157,0.0015873255,0.0020706179,-0.0025698224,-0.0029906728,0.0012092505,-0.004494188,0.0017501177,-0.0008111031,-0.0027850345,0.002346371,0.0047300905,-0.0005608986,0.001594683,0.0041828584,0.004494434,0.002251934,0.0015729988,0.002276921,1.5777292e-05,-0.00090272375,0.0006978907,-0.00022006781,0.003201977,0.0018449695,0.0040814904,-0.0036579482,-0.00083397917,-0.0039456,0.0005374957,0.00024147137,0.0024415122,0.0046689427,-0.00068919413,0.0013094724,0.0017530831,0.0011193829,0.0033853054,-6.19275e-05,-0.00031292578,0.0021851605,0.0025435607,0.004689305,-0.00047865938,0.0029316533,-0.0011093625,0.005031022,-0.0015879764,-0.003591966,0.0013470656,-0.0018828044,0.004342648,-0.00022292859,-0.0014795632,0.0036958493,0.0047662007,-0.004129786,-0.000111760746,-0.0031600106,0.00347543,-0.004267191,-0.0043833777,-0.0035597098,0.001525984,0.0011288124,0.0017561994,0.002433051,0.003286012,-0.0015022161,0.00033526457,-1.8714223e-05,0.0016577732,0.003403087,-0.0045488076,0.001966262,0.002144069,0.00064629415,0.002154731,-0.003256536,-0.002522212,0.0036793672,-0.002585362,0.003222828,-0.00048270109,-0.002581969,0.0025750205,0.00216056,-0.0005179078,-0.00046716837,-0.0005286761,9.8069046e-05,0.0044075553,-0.0025833703,-0.00029570048,-0.0027286632
show,-0.0047899666,0.0020243495,-0.0016183642,0.00301257,0.0031818575,0.003223668,4.132171e-05,-0.003617441,-0.00083115563,0.004831388,-0.0010151895,0.0041620824,0.0030151934,0.0037740846,0.0022971123,0.0022104753,0.0001347741,-0.0024971557,-0.0031382244,-0.002421883,-0.0016746216,-0.0039322963,-0.002501486,0.002447498,0.0034436814,0.0011426145,0.00091670227,0.0016649439,0.0037093686,0.002148743,-0.0021453446,-0.0016831474,-0.00094178447,0.0032047238,0.0014599136,-0.0014333875,-0.003673662,0.0036839868,0.003303488,0.00016459078,-0.0023131666,-0.0020622443,-0.0028789944,0.0043431073,0.0038250317,0.0018068973,-0.0023603032,-0.0039678756,-0.0007124295,0.0020199574,0.0046834555,-0.001101334,0.0029952172,0.0039277347,0.0046824473,0.002368065,0.0031162342,0.0033542856,-0.0040892144,0.0035075624,-0.00016384445,0.004578257,-0.0029245836,-0.0015533279,-0.0024069312,-0.0021512269,0.0028980474,-0.00031999097,-0.000532498,-0.0016560289,0.00441579,-0.004474037,-0.0041402206,-0.0035794922,-0.003934076,-0.0034580333,0.00071973045,-0.003765816,0.0012445996,5.987207e-05,-0.0011215379,0.0040928903,0.0020087194,-0.0006644042,-0.002610618,0.0027094078,0.00387486,0.0037925467,-0.004656804,-0.0033899562,-0.0040826253,0.0015240856,-0.0042636353,0.0049623535,0.0020503893,3.0024716e-05,-0.0006793094,-0.0010894212,-0.0030612727,-0.004844321
divideByAmount,0.0016766158,-0.0012936294,0.0034243932,0.005015111,0.0010198334,0.00096859084,0.00013700896,-0.001972508,-0.00022629787,0.0032306137,0.0035960062,-0.0037817308,0.0037777557,-0.0043208436,0.0010794441,-0.0017626828,0.003671097,-0.0018445057,-0.0008861906,-0.004257294,-0.0010204448,-0.0010933469,-0.0020569824,-0.0036920677,-0.0020397787,0.0032390917,-0.0012982154,-0.00094630866,0.0039318893,-0.004876902,0.0042930664,-0.0018350015,-0.0010574225,0.0035075215,0.003687845,0.0020116684,0.004587464,0.00016179265,-0.0021148445,-0.0013518251,-0.0041373163,-0.0045527737,0.0045070234,0.003775301,0.0040224693,-0.0040396363,-0.0026343835,-0.002320821,-0.0015470654,-0.0028459625,-0.0014228655,0.0005358194,-0.0039235423,0.0024283458,-6.961209e-05,0.00223977,-0.004962078,0.00341245,0.0011816468,-0.0010377109,0.0010268647,-0.00012748092,-0.00031143325,-0.00044403007,-0.005237774,-0.00062604476,-0.0008258122,-0.0011228581,0.0043051173,0.0012882412,0.00096435833,-0.0011218102,-0.004896381,0.00022936516,-0.0024194655,0.0023996732,-0.0027973878,-0.0047740894,-0.0033057085,-0.001878689,0.0048049428,-0.002711643,0.004773578,0.004786549,-0.0005591515,-0.002322604,0.00074009213,-0.0004884488,0.0017099222,-0.0030114045,-0.0032879845,-0.0023569185,-0.0009217735,-0.0005342828,-0.0032458438,0.0036488,0.0021140585,-0.002036197,-0.0041165794,0.00050207076
invert,-0.0012944265,0.0027650213,-0.0007336551,-0.00048463503,0.0013818182,-0.003464351,0.0030434662,0.0026875925,-0.001516357,-0.0030966396,-0.0027342825,0.0022394254,0.002680027,0.004619783,-0.0018025978,0.004510846,0.0049543264,-0.002002988,-0.0047268174,0.0026195014,0.001342973,-0.003299783,0.00027425788,-0.004567342,-0.001777001,-0.0023770493,0.0030386625,0.0032976419,0.0008797931,-0.0015166907,-0.0036452028,9.458317e-05,0.0033834763,0.0022367935,-0.0035711802,-0.0045500975,-0.0042039473,0.0012924194,0.0023095384,-0.003453333,-0.0006957761,0.0029182564,-0.0044935094,0.002038599,0.003663052,0.0026978722,0.0037321572,0.004014125,-0.002055338,-0.0012072573,0.0014568182,-0.0019295011,-0.0005383103,0.0034775625,-0.0022652894,0.002852102,-0.0004798316,0.0024696826,-0.00368535,-0.0047613843,-0.0045450977,0.00043182695,-0.0045232954,-0.0014864149,0.00087418914,-0.0018554319,-0.00045083754,0.001486603,-9.3660376e-05,0.001256817,-0.0034809823,0.0024333247,-0.0028941007,-0.0043037115,-8.478985e-05,0.00072424975,-0.0023390725,0.001787889,0.0037382601,0.002748724,-0.00017920001,-0.001967437,0.00038419146,-0.0019006886,-0.003711875,0.00018446858,0.0028148373,0.0031710516,0.0045110206,-0.0019972692,-0.0020960919,0.002731172,0.0034743047,-0.00038403636,0.0002557912,-0.0017645058,-0.003614363,0.0023659447,-0.0041777506,0.0028596262
updateFromSystem,-0.005072546,-0.003429581,0.0039643324,0.0018671509,0.0009993538,0.0033365714,0.0014005626,0.0006338025,0.0010070073,0.00090963277,-0.00023981565,0.0039368887,0.0011102664,7.729655e-05,-0.0043045306,0.0019713945,-0.0042456603,0.0043567745,0.004138877,-0.00022607399,0.002020543,-0.00013995373,-0.0023875218,-0.0031034152,0.0037311641,0.0033747808,-0.005021535,-0.0021087162,0.001127433,0.0026431931,0.0042063124,-0.0037456057,-0.0019452813,-0.0031185902,0.0020155788,0.00048137724,-0.0005735572,0.0014323434,-0.0035055443,-0.0036834595,-0.003803924,-0.004566155,-0.0046476643,0.002411791,0.0019069507,-0.00063508016,6.0524373e-05,0.0038446437,-0.0019371951,-0.0005290974,0.0036363539,-0.0029473344,0.00056025194,-0.004419004,-0.0022351614,-0.003439878,0.0045170174,4.5797526e-05,-0.00048328948,0.00081503397,-0.004216849,0.001162924,0.0012082285,-0.00051355874,0.0029762497,-0.0036850518,0.0026705486,-0.003932399,0.0010225434,0.0048947628,-0.0007666723,0.0026749657,-0.0010485466,-0.005255716,0.003865709,0.0032461297,-0.0032528213,0.0034214235,0.0037992017,-6.497531e-05,0.0030399642,-0.001407071,-0.0030232752,-0.00025519132,-0.0010679023,-0.00321439,-0.004971211,0.003772423,-0.0042105913,-0.00040478507,-0.0022717414,0.0023115936,-0.00410676,0.0029842178,0.0021403271,-0.0035781492,-0.0041128085,0.0006519977,0.004081083,0.004057552
addSingleError,-0.004373967,-0.00074640906,0.0013494422,0.0023872526,0.0025884162,0.00041743036,-0.0046918876,0.0004402164,0.001231651,-0.00016657237,0.0016682756,-0.0020336942,0.0010510157,-0.001523152,-0.0016310331,0.0032116503,-0.0006860309,0.0016092546,-0.0038684472,0.0010352993,0.0030503415,0.004337208,0.00394543,0.0030256412,-0.0011430219,-0.00035691488,-0.0017595163,-0.0049811024,0.0009739105,0.003693794,-0.0027747776,-0.003020091,0.0049240086,0.00040479124,0.004538054,0.0002179436,0.0046352623,0.0026049379,0.0012529424,-0.0020160065,0.0026341407,-0.0022709067,0.000565433,-0.0029372494,0.0004321017,-0.00013941978,0.0048713856,0.0013718571,-0.000896739,0.0029799608,0.0032023299,-0.0044711414,0.0019435465,0.00051079085,0.0029725165,0.0018280857,0.004521692,-0.001933928,0.0033804225,0.0031803655,-0.004429168,0.0025389069,-0.0010148084,0.0008663253,-0.0017497981,0.0019387933,0.0003720478,0.0035194305,0.0045102797,0.0032210425,-0.002175064,-0.0033404871,0.0017566129,-0.00084607204,0.0038717957,0.002698785,0.0035086204,0.0013963488,-0.0010553261,0.0005141342,0.00074649596,-0.0033844872,0.004166979,0.00062805164,0.0026734027,0.00020171134,0.0024111164,0.0040657767,0.0016125864,0.0030037472,0.004233243,-0.0013451176,0.0016736021,0.0010743317,-0.004382774,-0.0024896022,0.0032351643,-0.0019266893,0.00140217,-0.0036113653
displayReadableRows,-0.0043522012,0.0036153027,-0.004820635,-0.0031210326,-0.0012527418,-0.001484589,-0.0038830678,0.0017322432,0.002477701,0.0015225563,-0.0019816759,-0.003141108,-0.0019523272,-0.004551905,-0.0034529574,-0.0005244774,0.0020175555,0.0014822898,-5.0950308e-05,0.0010904227,0.0006078998,-0.0023296364,-0.0044049197,-0.004997961,-0.0014010817,-0.00041291743,-0.004950128,-0.004589132,-0.00039358545,0.000321221,0.0036411951,-0.004246796,-0.0016455177,5.1041836e-05,0.0015599558,0.0024241023,-0.0030201534,0.0041485084,0.0032863952,-0.0009537784,-0.0019613043,0.0029599457,-0.0015785538,-0.005116846,0.00029644533,0.004466897,-0.001446864,0.0024058747,0.0009800666,0.003920756,0.0040810816,0.0011391897,0.0028407855,0.00011529382,0.0023232058,-0.0014549568,-0.0004047775,-0.00061571563,0.00024077042,-0.0025767859,-0.0033296794,0.0010611244,0.0026204642,-0.0024738687,-0.004505999,0.003544187,-0.0029263557,0.0009411874,-0.004768092,0.0008873118,-0.0031116595,-0.0026439629,0.0040528136,0.0031321049,-0.0018631718,0.0021331003,0.0018847871,-0.0023856263,0.003115945,-0.003610103,0.0036764077,-0.0018742563,-0.0011215876,0.0038168207,-0.0038851814,-0.0011011317,-0.00066094205,0.0029931834,0.0018314398,-0.0025633837,-0.0027591214,0.001379151,0.0041757417,0.0013891369,0.0025123714,0.004092439,0.00048760264,-0.0019084285,-0.0005561959,-0.0009210183
