Function,Feature_0,Feature_1,Feature_2,Feature_3,Feature_4,Feature_5,Feature_6,Feature_7,Feature_8,Feature_9,Feature_10,Feature_11,Feature_12,Feature_13,Feature_14,Feature_15,Feature_16,Feature_17,Feature_18,Feature_19,Feature_20,Feature_21,Feature_22,Feature_23,Feature_24,Feature_25,Feature_26,Feature_27,Feature_28,Feature_29,Feature_30,Feature_31,Feature_32,Feature_33,Feature_34,Feature_35,Feature_36,Feature_37,Feature_38,Feature_39,Feature_40,Feature_41,Feature_42,Feature_43,Feature_44,Feature_45,Feature_46,Feature_47,Feature_48,Feature_49,Feature_50,Feature_51,Feature_52,Feature_53,Feature_54,Feature_55,Feature_56,Feature_57,Feature_58,Feature_59,Feature_60,Feature_61,Feature_62,Feature_63,Feature_64,Feature_65,Feature_66,Feature_67,Feature_68,Feature_69,Feature_70,Feature_71,Feature_72,Feature_73,Feature_74,Feature_75,Feature_76,Feature_77,Feature_78,Feature_79,Feature_80,Feature_81,Feature_82,Feature_83,Feature_84,Feature_85,Feature_86,Feature_87,Feature_88,Feature_89,Feature_90,Feature_91,Feature_92,Feature_93,Feature_94,Feature_95,Feature_96,Feature_97,Feature_98,Feature_99
class,-0.00024435713,0.0036560663,-0.001317406,0.001365043,-0.0013262312,0.00091810257,-0.0018703354,0.0022595513,0.0049413894,-0.0030013898,-0.0020918471,0.0017765866,0.00251111,-0.0025943487,-0.004432607,0.002903464,0.00091959425,-0.0017800954,0.0040075444,-0.0042638537,-0.0037081165,-0.0029016144,0.00405631,-0.0027401433,0.0004962629,0.0006445209,0.00019237731,0.0026152579,0.001923759,-0.0035902308,-0.002999409,-0.004819419,-0.0012147592,-0.003250251,-0.000469623,-0.0046284976,0.0047991253,-0.0032767938,-0.0046897703,-0.0049420353,-0.0036070258,0.0032165325,0.0037056354,-0.0032471821,0.0041253036,-0.0018166064,0.0028800878,0.0049905293,0.0013214432,0.00053796114,0.0016211343,0.0044453894,-0.003510802,-0.004944453,0.0019485808,-0.00020581497,0.00436188,0.0014542859,0.0026402087,-0.0031189842,-0.0019421586,0.0038507157,0.0029370952,0.003525196,0.0008877484,-0.00045859072,0.0018557572,-0.0043798373,-0.0047910716,0.004995539,0.0027393312,-0.0035554946,0.0017109682,0.0027650523,0.0041725365,0.0029644247,0.0045941845,0.0023537504,0.0016839046,-0.0011050683,0.0013402096,0.0035477811,0.0015188557,-0.003030784,0.002774552,-0.0010485034,-0.00095796154,-0.0007948466,-0.0042988393,-0.002122007,-0.0038619076,-0.0021134736,0.0008351145,0.0029341383,-0.0001267748,-0.0022533394,-0.0021735374,0.0040660547,0.00056134455,-0.0011004506
faZtILEKmz,0.0030720753,-0.000905554,0.0012558717,-5.9782953e-05,0.0031522952,0.00070200517,0.003603866,0.000733181,-0.004308574,0.0006761938,0.0033601304,-0.0012535577,-0.0019271063,-0.004199868,0.001165432,0.0021698338,-0.0022960904,-0.003638864,-0.00069515535,0.0040500634,0.0017800836,-0.002715951,-0.004503968,-0.0009310276,0.001873744,-0.0021872742,0.0046937168,-0.00392256,-0.002488788,-0.004695559,0.001114613,-0.0020518992,0.00031314167,-0.004801184,-0.0046640853,0.004165937,0.00262554,-0.0035655529,-0.0017960613,-0.00091844564,-0.0006855096,0.0026471633,0.0022894244,0.0001726848,-6.7596884e-05,0.004115962,-0.00205319,-0.0001231863,0.0023004434,0.0025277971,-0.0017324502,0.0009907951,-0.0009281012,0.0028390659,0.0012071027,-0.0006949705,-0.0036996398,0.0032556388,0.002984305,0.0027042385,0.0037192595,-0.0018969699,-0.0028171416,0.00070822873,-0.0009342487,-0.001295624,-0.00074392546,0.0011838874,-0.0006752146,0.0042274697,0.0017593607,-0.00058140524,-0.0014097277,0.0023962918,-0.0012763166,0.0020581097,0.0036901447,0.0003384135,0.0047918125,0.004771531,0.0036174103,-0.0007118858,0.00019341911,0.0014801575,0.0022163056,-0.0008509818,-0.0009537213,0.0046890103,-0.0014220468,0.003463864,0.0023437366,-0.0018886393,0.0038396406,0.0009680144,-0.0007170255,-0.0015682973,0.0043721045,-0.0041790027,-0.0048390864,0.0038422649
static,0.0032260122,0.003401458,-0.00030745543,-0.0032997269,0.004999884,0.0025048729,-0.0010380588,0.0018152603,-0.00014288918,-6.310077e-05,0.004984639,0.0041336142,-0.0037311951,-0.00035980385,0.0005482017,0.0044754785,0.0048625045,0.0009717903,-0.0039779535,0.0007563245,0.004520675,-0.0021111956,0.00035149226,-0.00018654598,0.0021798972,-0.003059208,-5.0648126e-05,0.0029893848,0.0022058962,-0.0005602004,0.003237954,-0.0022637588,0.0034634615,-0.0010353932,-0.004666963,-0.0009807855,-0.0023174947,0.0008398817,0.004863149,-0.0023451978,0.0019253464,0.0015675973,0.00094991166,0.0013964808,-0.0006350221,0.00047596724,0.0009551518,-0.00408939,-0.00028993905,-0.0034202277,0.0041948743,-0.001207871,-0.0031582774,-0.0020763557,-0.001940362,0.0018860239,0.004370647,0.0015617947,0.0032834501,-0.0006465457,-0.0018953915,-0.0035368318,0.0015901296,0.004446212,0.0041108546,-0.003076317,-0.0021985716,0.004774881,-0.001981623,-0.0035532098,-0.0044712573,0.004314971,-0.003130499,-0.004522877,-0.00058434997,-8.901892e-05,0.00014162502,0.0021474345,0.0029213252,-0.0029551974,0.0021045501,-0.0043355976,0.0025918072,-0.002093318,-0.0029864563,0.0040285443,0.0024532306,0.0012371346,0.004169369,0.00020340346,-0.0023056467,-0.0039005901,0.002551939,-0.0016318983,-3.8375198e-05,0.0017383674,0.004268557,-0.0014252191,0.00084986555,-0.0017754557
JfhrjZeq,0.0022534395,-0.004723898,-0.002713196,0.0036360975,0.004201553,-0.00045869334,-7.2786656e-07,-0.002891067,0.0035891049,0.0026444278,-0.00017702741,-0.004455684,-0.00092782005,0.0020195488,0.0005455122,-0.0019819331,0.0048904773,-0.0035102577,0.0016735528,0.0044274363,0.0029954875,0.0042635896,-0.0043385974,3.9146078e-05,-0.0025448184,0.004738494,0.0038544666,-0.004537282,0.0043974854,0.0011144639,0.0036521095,-0.0010274979,-0.004535197,0.00074918283,-0.004988648,-0.0031476226,-0.0035132412,0.0042692735,-0.0018469383,-0.0018723535,-0.0014533809,0.0009618752,0.0029213561,0.00399347,-0.00090051384,-0.0029860013,0.0008843315,-0.0011232673,0.0015097529,-0.00034332208,0.0015853385,0.0005916121,0.0001147847,0.0016987962,-0.00024966503,0.0038213602,-0.0047625834,-0.0031956933,0.00013120394,0.0030646992,0.004464937,-0.0028807607,0.00498379,0.0006351296,0.0013978522,-0.0005741558,-0.003469245,0.0029708908,-0.0036510478,-0.0012774243,-0.002713423,0.002911912,-0.0027087668,0.00026491028,-0.0013912722,0.0036224758,-0.0047209486,-0.0001373959,-0.00042011915,0.0003656004,-0.0031241258,-0.003085076,0.002988922,-0.0013250131,0.0016767288,0.0015431622,-3.93852e-05,-0.0015370499,0.004525709,-0.0046126554,0.0049717263,0.002791863,0.0010218642,0.001836794,0.002933676,0.0037140662,0.004481615,-0.0016256609,-0.0013265496,0.001028891
